%YAML:1.0
my_svm: !!opencv-ml-svm
   svm_type: C_SVC
   kernel: { type:LINEAR }
   C: 100.
   term_criteria: { epsilon:2.2204460492503131e-16, iterations:450 }
   var_all: 3780
   var_count: 3780
   class_count: 2
   class_labels: !!opencv-matrix
      rows: 1
      cols: 2
      dt: i
      data: [ -1, 1 ]
   sv_total: 1
   support_vectors:
      - [ -1.56436525e-02, 3.95441835e-04, 1.74788479e-02,
          -1.50465658e-02, -3.41362879e-02, -2.63845827e-02,
          1.26350783e-02, 8.95703118e-03, -8.82877409e-03,
          1.91911403e-02, 1.82735566e-02, -3.92355229e-04,
          -8.67936946e-03, -2.58756597e-02, -2.66363379e-02,
          1.28721269e-02, -3.00149783e-03, 1.33237978e-02,
          -3.40115800e-02, -8.40938743e-03, 2.90533472e-02,
          -1.97081417e-02, -1.56580899e-02, -2.04244051e-02,
          -6.46309694e-03, 1.29077979e-03, -5.55580156e-03,
          1.22699216e-02, -6.57377578e-03, 6.52963715e-03,
          -1.56143513e-02, -5.95460739e-03, -6.81303767e-03,
          9.04328283e-03, -8.25423840e-03, 1.73507985e-02,
          1.47585187e-03, 1.04907760e-02, 2.52935127e-03,
          -1.69962551e-02, -2.34484649e-03, -1.24911778e-02,
          -3.21268733e-03, -1.79931745e-02, 9.02824162e-04,
          -2.36158189e-03, -2.33900957e-02, -5.32064494e-03,
          8.70186090e-03, 3.94913484e-04, 5.30147552e-03,
          -3.31365736e-03, -8.97596590e-03, -1.29384222e-02,
          -2.10615229e-02, -1.57329049e-02, -6.99241320e-03,
          -8.42709839e-03, 2.85767787e-03, -7.77565502e-03,
          -3.41764791e-03, -2.54564676e-02, 1.02756973e-02,
          -2.28381474e-02, -1.47511661e-02, -1.08651584e-02,
          2.00982913e-02, 1.25485733e-02, 4.57732426e-03,
          -6.88358489e-03, -1.73023865e-02, -1.07138725e-02,
          1.40488977e-02, -1.39051657e-02, -2.13613380e-02,
          1.12320101e-02, 3.97775741e-03, -1.93345954e-03,
          -1.18480669e-02, -4.50103218e-03, 2.51149249e-05,
          8.67249258e-03, -1.27115147e-02, -2.40689516e-02,
          -3.09111774e-02, -7.45387422e-03, -8.13789724e-04,
          -1.03126904e-02, -2.64043603e-02, -2.27435143e-03,
          -8.71010311e-03, -1.55304139e-02, -1.40249999e-02,
          2.50729788e-02, 2.30426546e-02, -2.64085596e-03,
          -1.37745487e-02, 1.61623699e-03, -1.14718052e-02,
          1.90870520e-02, 1.89472605e-02, -1.21226674e-02,
          -2.33772229e-02, -2.06272793e-03, -2.16753390e-02,
          -7.87279941e-03, -7.33547425e-03, -1.11441668e-02,
          -2.77742781e-02, -1.78953409e-02, -2.65666991e-02,
          -1.56506132e-02, -2.66172234e-02, -1.24175632e-02,
          -8.72566830e-03, -2.09829975e-02, -1.16049582e-02,
          -7.23854825e-03, 1.05874659e-02, 1.37488507e-02,
          -1.45208407e-02, -1.35382004e-02, -1.67221995e-03,
          9.56266839e-03, -9.81380325e-03, -1.66426934e-02,
          -4.68674628e-03, 5.32277487e-03, 9.57491226e-04,
          4.90992935e-03, -2.48347316e-02, -3.41196954e-02,
          -5.40081970e-03, -6.76235091e-03, -1.59599669e-02,
          -9.82382428e-03, 3.20636295e-03, -1.37569858e-02,
          3.15905269e-03, -8.99745990e-03, -1.02397772e-02,
          6.37665624e-03, -5.86240739e-03, -1.72515288e-02,
          -1.34688951e-02, 1.93663072e-02, 1.95522178e-02,
          -2.02529933e-02, -1.06741861e-03, -5.45406714e-03,
          1.05235660e-02, -1.18270060e-02, -2.02977620e-02,
          -1.59098748e-02, -1.25684971e-02, 1.82135345e-03,
          -3.88826467e-02, -2.15524044e-02, -5.01776487e-03,
          6.30089594e-03, -4.41435911e-03, -1.77393388e-02,
          -5.85044594e-03, -7.03119021e-03, -1.31999832e-02,
          -3.53156514e-02, 1.16039971e-02, 1.00752274e-02,
          1.78045239e-02, -1.09013601e-03, -1.51439747e-02,
          7.29375565e-03, -3.77065837e-02, -3.58396070e-03,
          -4.99296226e-02, -5.10482397e-03, -6.81138074e-04,
          2.75125057e-02, 1.75118893e-02, 1.00870449e-02,
          -1.93797052e-02, 1.94117532e-03, -1.39257088e-02,
          -2.35373285e-02, -1.97400153e-02, -1.04991626e-02,
          2.53018388e-03, -8.41455907e-03, -2.96975654e-02,
          -3.79560776e-02, 7.76051311e-03, 7.38597941e-03,
          -1.45348134e-02, -1.93027202e-02, -1.15392096e-02,
          4.30614967e-03, 2.49331119e-03, -3.30678336e-02,
          -3.48811760e-03, -3.19514051e-02, -2.88403872e-02,
          -7.80800730e-03, 5.47997421e-03, 2.46310141e-04,
          1.27112083e-02, 1.05046462e-02, 1.11433547e-02, 2.40041572e-03,
          1.95032191e-02, 5.21814860e-02, 7.06997467e-03, 6.38730451e-03,
          8.86937696e-03, 1.23477038e-02, 1.45096984e-02, 6.52543083e-03,
          -3.18326205e-02, 9.76033881e-03, 5.10925017e-02,
          -1.71602182e-02, -5.48613351e-03, -3.19181621e-04,
          1.35738226e-02, 8.69360380e-03, -4.81872298e-02,
          -6.01243600e-02, -5.40892519e-02, -1.52707407e-02,
          -2.61780201e-03, 9.64346342e-03, 1.14055965e-02,
          5.51585155e-03, -2.52752751e-02, -6.52394518e-02,
          2.79767867e-02, 4.83491831e-02, 5.30689163e-03,
          -1.16195865e-02, 1.81581341e-02, 2.69497391e-02,
          2.46664304e-02, 6.14805147e-03, 1.37653323e-02, 3.83281000e-02,
          2.95638032e-02, -1.69092161e-03, -6.84483023e-03,
          2.96190735e-02, 1.47788627e-02, 2.29274854e-02,
          -3.00929584e-02, 5.75717818e-03, -6.17558472e-02,
          -1.32128252e-02, 4.33577923e-03, 1.78127866e-02,
          2.62167696e-02, 1.24730291e-02, 2.04909761e-02,
          -3.23168039e-02, -3.47055793e-02, -3.82633992e-02,
          -3.23144346e-02, 2.12819315e-02, 1.85200926e-02,
          1.75156724e-02, 3.83117003e-03, -2.09017303e-02,
          -4.08604778e-02, 1.95681043e-02, 3.73189971e-02,
          1.23366655e-03, -1.82147347e-03, 6.05473481e-03,
          2.98433732e-02, 1.73545796e-02, 2.65047364e-02,
          -2.05862168e-02, -2.80139688e-03, 1.01441797e-02,
          -7.72002805e-03, 3.18426006e-02, 1.28644761e-02,
          3.62627208e-02, 1.20761115e-02, -8.45774636e-03,
          -9.47653083e-04, 1.36285368e-02, 2.01162901e-02,
          2.50130426e-04, 1.99537054e-02, 1.52273225e-02, 1.34348143e-02,
          6.44711498e-03, -2.36286037e-02, -6.14833273e-02,
          -4.75519113e-02, 2.81448010e-02, 2.98876073e-02,
          1.77465659e-02, 1.43290870e-03, 1.78568251e-02, 5.87101094e-03,
          -2.75900029e-03, -3.33835073e-02, -5.61011769e-02,
          2.02781819e-02, 2.78574880e-02, 2.48731039e-02, 1.42653901e-02,
          3.03705167e-02, 1.73371602e-02, -2.12438740e-02,
          -3.01917680e-02, -5.55350631e-03, 3.41731906e-02,
          3.52150276e-02, 2.39835177e-02, 1.45837683e-02, 4.31327857e-02,
          -2.33543459e-02, 5.88126900e-03, -7.80509859e-02,
          -2.54539587e-02, 1.79144107e-02, 7.00643566e-03,
          8.64742510e-03, -6.77052001e-03, -1.15612021e-03,
          1.09811779e-02, -2.25042794e-02, -3.82456928e-02,
          -1.72934085e-02, 1.59414317e-02, 8.45695566e-03,
          6.03135256e-03, -9.82362218e-03, 4.73371102e-03,
          5.40509745e-02, 6.02847524e-03, -2.51571322e-03,
          -3.26769501e-02, 2.58931778e-02, 1.29564209e-02,
          9.11878329e-03, 5.99199533e-03, 1.61557440e-02,
          -1.65201705e-02, -4.24144492e-02, -6.67551905e-02,
          1.45707214e-02, 1.30294450e-02, 5.63092437e-03, 9.27072484e-03,
          -2.95574078e-03, 7.94297724e-04, 1.68295205e-02,
          -1.72427446e-02, -7.28971735e-02, -4.41241311e-03,
          1.08828098e-02, 5.23687433e-03, -7.11021200e-03,
          -1.37781240e-02, -1.64212775e-03, 3.85613665e-02,
          3.80113837e-03, -5.01697650e-03, -2.50394363e-02,
          2.46564299e-02, 3.07535473e-02, 6.37028879e-03,
          -1.83972884e-02, 7.45032681e-03, 1.99605692e-02,
          -2.12415177e-02, -8.95736180e-03, 1.77950307e-03,
          -2.85121799e-03, -1.37556447e-02, -1.48706436e-02,
          -2.48854738e-02, -2.30650529e-02, 1.10282740e-02,
          -1.69749539e-02, -5.45910932e-02, -7.20896060e-03,
          2.76585296e-02, 1.47946775e-02, -8.64156149e-03,
          -3.42381261e-02, 3.02761095e-04, 1.25082796e-02,
          -5.45546226e-03, -1.33427577e-02, 1.02337142e-02,
          2.33631078e-02, 5.82183488e-02, 8.47710110e-03,
          -2.70131640e-02, 1.31047927e-04, -3.49782989e-04,
          -3.35094258e-02, -3.59289870e-02, -4.85210540e-03,
          2.22806204e-02, 3.08821481e-02, 3.75521183e-03,
          -7.78539712e-03, -1.12100551e-02, 1.99898332e-02,
          2.13949718e-02, 1.02803437e-03, 6.32720813e-03, 3.52449156e-02,
          5.05436249e-02, 1.11930454e-02, -3.03984508e-02,
          -3.13694179e-02, -3.35612595e-02, -3.83828655e-02,
          -4.75746542e-02, -1.45468488e-02, 1.89738441e-02,
          4.49469239e-02, 7.07738288e-03, -1.50882043e-02,
          -2.17398871e-02, -2.14375113e-03, -9.88384895e-03,
          1.91360842e-02, 5.81620540e-03, 7.87332561e-03,
          -1.52051570e-02, 4.30867169e-03, 9.78083001e-04,
          -1.75472945e-02, -1.83972679e-02, -8.58346000e-03,
          -9.07025300e-03, 3.04440525e-03, -2.09920481e-03,
          -1.46569861e-02, 1.57835186e-02, 2.75336616e-02,
          -2.20535643e-04, 6.84088795e-03, -5.24235796e-03,
          -1.39895268e-02, -1.59759428e-02, 8.95221904e-03,
          6.65344112e-03, 6.43990980e-03, -2.23063882e-02,
          -2.58269627e-02, -2.37386115e-02, -1.52859343e-02,
          1.33708417e-02, 6.39579259e-03, 1.05750840e-02,
          -2.61721034e-02, -2.55458485e-02, -1.15097361e-02,
          -9.62158665e-04, -2.50495714e-03, -2.57050861e-02,
          -5.42217819e-03, -6.95533492e-03, -2.05777702e-03,
          1.07044512e-02, 2.61075422e-02, 8.29922780e-03,
          -9.54039395e-04, 2.65686749e-03, 3.50194518e-03,
          9.14037868e-04, -2.82663181e-02, 2.54235091e-03,
          2.05689538e-02, 1.05398810e-02, -3.44302133e-02,
          -1.63976047e-02, -5.78191038e-03, -4.10197768e-03,
          -7.33200507e-03, -3.69833112e-02, 7.81162782e-03,
          -1.42253339e-02, -2.66624298e-02, -2.28847433e-02,
          6.69013802e-03, 8.40845518e-03, -7.69709051e-03,
          9.54528060e-03, -2.56538182e-03, -2.44795419e-02,
          -1.10900141e-02, 1.52228493e-03, -2.70665325e-02,
          3.50543181e-03, 2.55993698e-02, -5.93068637e-03,
          1.29119251e-02, -1.45619540e-02, 6.55029807e-03,
          2.56129801e-02, 1.77941211e-02, -2.65166517e-02,
          -9.21450846e-04, 7.28151063e-03, 1.69337001e-02,
          9.70161334e-03, -1.77253541e-02, 5.33709954e-03,
          5.05551510e-03, -7.64694880e-04, -4.18828055e-02,
          -2.46102940e-02, 6.90903224e-04, 1.37459636e-02,
          1.80010255e-02, -4.01065685e-03, -9.59889404e-03,
          1.92866717e-02, 3.54482345e-02, -3.50163542e-02,
          3.87025229e-03, 3.36404257e-02, 6.40563667e-03, 2.80509274e-02,
          -1.42127778e-02, 3.83426552e-03, 8.13667197e-03,
          4.79847100e-03, -3.61118726e-02, -1.96256470e-02,
          -1.61504839e-02, -2.05864129e-03, 2.27476191e-02,
          -7.26264436e-03, -1.39678987e-02, 3.38323019e-03,
          2.17601676e-02, -2.87347124e-03, -5.46896597e-03,
          1.63017702e-03, -1.57240164e-02, -1.27282003e-02,
          2.89650774e-03, 7.83220050e-04, -1.65302176e-02,
          6.97630038e-03, -2.44220886e-02, -5.71834762e-03,
          1.88072473e-02, 1.19699277e-02, 5.80417039e-03, 1.38499979e-02,
          3.49009351e-04, 1.31205972e-02, -7.58207287e-04,
          -2.91272299e-03, -1.76474843e-02, -1.17578581e-02,
          -8.10672063e-03, -1.14068640e-02, -1.91401073e-03,
          4.31464165e-02, 3.84787354e-03, 2.09735967e-02,
          -2.16662046e-02, -1.24157118e-02, -1.34877814e-02,
          1.26976036e-02, -2.33088504e-03, 1.31433289e-02,
          -1.18354224e-02, -2.33813375e-02, -6.02788944e-03,
          4.01286379e-04, 7.29824463e-03, 1.24972733e-02, 4.78812726e-03,
          -7.72441132e-03, 1.81260929e-02, -1.51810434e-03,
          -3.24274367e-03, -1.50539889e-03, 2.13329289e-02,
          1.57997233e-03, -3.90134082e-04, -3.27484049e-02,
          -3.26575413e-02, 1.14311893e-02, 2.44630799e-02,
          -1.78266186e-02, -2.27562315e-03, -1.23485569e-02,
          2.86311470e-03, -1.31833088e-02, -1.38377855e-02,
          -1.92074217e-02, 1.99148413e-02, 7.40153855e-03,
          6.94869668e-04, -4.84929327e-03, 2.32474152e-02,
          1.72246508e-02, -8.39176774e-03, -2.97512561e-02,
          -2.63367761e-02, 1.46484766e-02, -3.56116355e-03,
          -4.74037044e-03, -3.00086616e-03, -1.82685803e-03,
          -1.03358980e-02, -1.94388162e-02, -3.99906598e-02,
          -2.18817294e-02, -1.23634224e-03, 2.76220939e-03,
          7.33579835e-03, 3.02570779e-02, -2.74528954e-02,
          -3.22907828e-02, -2.25185826e-02, -9.09189787e-03,
          -6.42953382e-04, -1.00208505e-03, -6.04156684e-03,
          -1.98146049e-03, 2.01873612e-02, 1.64631400e-02,
          2.57982826e-03, -2.34183669e-02, -2.65179873e-02,
          -1.46051189e-02, -1.94460677e-03, -1.02555240e-02,
          -1.31987985e-02, 3.99495922e-02, 3.27552290e-04,
          -2.60694548e-02, -1.37715125e-02, -8.00032262e-03,
          6.98277354e-03, 3.78465815e-03, -3.62799759e-03,
          6.31291245e-04, 4.62362617e-02, 1.83898665e-04,
          -3.48093994e-02, -2.73867473e-02, 2.80417572e-03,
          -1.19609488e-02, -9.43288393e-03, -2.31811451e-03,
          7.00113038e-03, -1.79213416e-02, -1.87218171e-02,
          -9.35465656e-03, 3.73539911e-03, 5.66361193e-03,
          -1.05928462e-02, -7.04388181e-03, -8.48822948e-03,
          -3.16541940e-02, 2.80104224e-02, 8.87587853e-03,
          -3.16508003e-02, -2.56632604e-02, -1.17865568e-02,
          -2.13529030e-03, -2.36829882e-03, -4.38486412e-03,
          -1.85080376e-02, -4.34646057e-03, -9.04504675e-04,
          -2.98615899e-02, -1.59839023e-04, -3.08131054e-03,
          -9.00312606e-03, 3.55595583e-03, -1.53701510e-02,
          -4.91798995e-03, -4.06176969e-02, -3.17166112e-02,
          -1.56025111e-03, 1.77999474e-02, 1.81093942e-02,
          2.23142852e-04, -1.44127002e-02, 1.05450274e-02,
          -1.28419267e-03, -3.58660333e-02, -6.39632940e-02,
          3.26728448e-04, 9.09657218e-03, 2.46627834e-02, 1.97976138e-02,
          2.59618089e-03, 3.97980027e-03, 7.01294234e-03,
          -1.16247367e-02, -4.54910984e-03, -3.33380736e-02,
          3.05708987e-03, 2.69159824e-02, 6.28531352e-03, 2.17307243e-03,
          3.63550335e-03, 1.98596828e-02, 4.07686923e-03,
          -7.51493685e-03, -8.16887652e-04, 3.39512038e-03,
          2.49768533e-02, 7.13744573e-03, -1.15279807e-02,
          1.83112174e-03, 9.28080059e-04, 1.31561114e-02,
          -2.49217171e-02, 2.28587314e-02, 7.10611884e-03,
          2.51295548e-02, 2.34433617e-02, 5.84560074e-03, 6.07804814e-03,
          2.22776420e-02, 1.99279767e-02, -1.85928552e-03,
          1.80390645e-02, 2.12988965e-02, 2.71356590e-02, 2.69619897e-02,
          2.01320648e-02, -7.52509804e-03, -1.26217566e-02,
          2.83870958e-02, 2.90682036e-02, 2.97323894e-02,
          -2.14224611e-03, 1.77094955e-02, -2.40724022e-03,
          -2.11870372e-02, -2.92425249e-02, -4.70799208e-02,
          -6.02237880e-02, -5.86608201e-02, -6.99630519e-03,
          -3.28810047e-03, 3.25135998e-02, -3.37176584e-03,
          -2.03142725e-02, 3.01660635e-02, 2.38472093e-02,
          -7.16956623e-04, 6.10823918e-04, 2.23903749e-02,
          2.61053164e-02, 3.21453027e-02, 1.89944264e-02, 3.39201353e-02,
          1.40009960e-02, -2.37118080e-02, -2.51407822e-04,
          6.92796567e-03, 3.27356383e-02, 1.18025392e-02, 3.16116661e-02,
          -3.55364159e-02, 1.25679094e-02, -3.27684805e-02,
          -4.23527844e-02, -4.99043986e-02, -5.11713475e-02,
          -3.06359399e-03, 5.06673567e-03, 4.62710187e-02,
          1.98522732e-02, -1.05694244e-02, -4.03491408e-02,
          -3.81815694e-02, -9.70659312e-03, 8.21034051e-03,
          1.12812463e-02, -4.29172628e-03, 2.48710290e-02,
          -8.74524005e-03, -3.52466032e-02, 3.12694674e-03,
          -1.52479587e-02, 2.08138768e-03, 2.41794996e-02,
          3.50953341e-02, 2.25369483e-02, 9.98829142e-04,
          -2.94685960e-02, -7.43223261e-03, -2.32044538e-03,
          -6.60312641e-03, 2.87204757e-02, 3.18494774e-02,
          5.95932920e-03, -2.14385655e-04, -4.05194461e-02,
          -1.84695087e-02, 1.31084991e-03, -1.86098944e-02,
          -3.47449780e-02, -8.49457690e-04, 3.92297432e-02,
          3.80225629e-02, 3.41687799e-02, -5.95832756e-03,
          -1.08823029e-03, -1.55732604e-02, -1.34461606e-02,
          4.66755172e-03, 2.10306235e-02, 3.68277058e-02, 9.23494156e-03,
          -4.48766351e-02, -3.24723087e-02, -1.16961170e-02,
          5.20373788e-03, 2.17063166e-02, 2.07792446e-02, 2.45483126e-02,
          1.77541785e-02, 2.17347760e-02, 9.18940082e-03,
          -2.72433776e-02, -1.54700270e-02, -9.69723053e-03,
          4.10403647e-02, 2.95980182e-02, 1.87078286e-02, 1.80505365e-02,
          4.35444638e-02, -3.28846276e-02, -6.33265451e-03,
          -1.33101353e-02, 8.09683814e-04, 1.70864481e-02,
          2.67737973e-02, 1.92472339e-02, 1.82411000e-02, 2.10593138e-02,
          4.45217919e-03, -1.47322845e-02, -1.05155250e-02,
          -1.64297763e-02, 1.00796614e-02, 1.29566770e-02,
          1.10241892e-02, -1.42810857e-02, 2.31358446e-02,
          -2.01812647e-02, -2.97416095e-02, -1.87026206e-02,
          -2.12705545e-02, 3.03856060e-02, 1.42484391e-02,
          8.82748421e-03, 1.42659284e-02, 1.45247597e-02,
          -1.66692976e-02, -2.79199518e-02, -1.25127183e-02,
          2.80097835e-02, 2.78264973e-02, 7.60285975e-03, 4.31755465e-03,
          8.74247402e-04, 4.71556978e-03, -2.81449687e-02,
          -4.05397415e-02, -3.41698937e-02, 1.22148218e-02,
          8.16024095e-03, 7.62153929e-03, 7.64069986e-03,
          -3.77956452e-03, 3.35940272e-02, -3.47457305e-02,
          1.40208965e-02, 5.50699513e-03, 7.86927063e-03, 1.50039159e-02,
          4.84525226e-03, 2.13300716e-03, -1.11579457e-02,
          5.50837070e-03, -4.07843739e-02, -2.82282196e-02,
          1.67496670e-02, 7.81698525e-03, 4.66285087e-03,
          -1.42679643e-03, -1.09332912e-04, -9.73338354e-03,
          -4.03707288e-03, -3.87351774e-02, -3.73984613e-02,
          -9.84194223e-04, 7.69715710e-03, 1.17095122e-02,
          8.19602236e-03, 6.06584596e-03, -9.64357145e-03,
          4.55971658e-02, -9.19574872e-03, -8.33342224e-03,
          1.20246951e-02, 2.02916507e-02, 6.97058765e-03, 1.90646120e-03,
          8.50544870e-03, -1.85785408e-03, -3.53680290e-02,
          -4.22072783e-02, -5.69148138e-02, 1.30024608e-02,
          -2.59471848e-03, 3.92440800e-03, -3.78080353e-04,
          1.35978265e-02, -1.01093668e-02, 2.88639702e-02,
          -2.05793176e-02, -2.35896111e-02, 1.04463231e-02,
          1.06961457e-02, 1.75970010e-02, 2.08799336e-02, 1.29234158e-02,
          -2.11571474e-02, 7.62320496e-03, -8.80518835e-03,
          -2.34768912e-02, 1.22927530e-02, 2.08430625e-02,
          1.37006603e-02, 3.81187201e-02, 1.77987863e-03,
          -1.20079909e-02, 1.49996495e-02, -1.65896732e-02,
          -1.53057473e-02, 1.31735168e-02, 1.90681405e-02,
          1.05037941e-02, 1.58810131e-02, 9.37158614e-03,
          -3.15099321e-02, -4.42689890e-03, 7.88390543e-03,
          -3.05109750e-02, 1.32609280e-02, 2.13760473e-02,
          8.78892094e-03, 1.65446531e-02, 1.01550892e-02,
          -2.26507299e-02, -1.28956595e-02, -3.93911004e-02,
          -3.32798921e-02, -9.71130910e-04, 2.01692712e-02,
          4.60361270e-03, 9.87602212e-03, -1.04082832e-02,
          -2.44985092e-02, 3.19422712e-03, -3.45557951e-03,
          6.88447151e-03, 7.12037412e-03, 6.42369268e-03, 1.07799098e-02,
          -4.71460493e-03, -1.69307403e-02, -1.15571823e-02,
          1.69916339e-02, 2.53235251e-02, 6.72134198e-03, 4.96272231e-03,
          1.02069753e-03, -4.28966386e-03, 1.06535459e-04,
          -1.45244272e-02, -2.21641548e-02, -3.07321250e-02,
          -7.41337566e-03, -1.57635454e-02, -3.51359844e-02,
          -5.11874212e-03, -6.22600224e-03, 3.43996985e-03,
          -1.02546709e-02, 1.18800497e-03, -3.34616192e-03,
          3.44977826e-02, 1.23011414e-02, -2.08733659e-02,
          -7.36239413e-03, 7.58990087e-03, -9.73509531e-03,
          -2.19968222e-02, -1.12049682e-02, 2.05621999e-02,
          2.41764821e-02, 1.32045394e-03, 1.93808563e-02, 1.39398705e-02,
          -1.07216900e-02, -1.87907799e-03, 1.56884696e-02,
          -1.74411070e-02, -4.17261757e-03, 1.89983528e-02,
          -1.02699175e-02, 2.69693267e-02, 1.98108889e-02,
          -1.31998975e-02, -7.18082627e-03, -1.01145320e-02,
          1.19430840e-03, -8.52466747e-03, -5.41831879e-03,
          1.03436979e-02, 1.43526839e-02, 8.43328144e-03, 7.55994534e-03,
          1.21933036e-02, -1.58939660e-02, -1.72264725e-02,
          -1.06569175e-02, -2.13166382e-02, -2.56274478e-03,
          1.04694348e-02, 1.49312532e-02, 3.27124842e-03, 2.57158112e-02,
          3.53350230e-02, -4.19854522e-02, -1.69294905e-02,
          1.23151438e-02, -9.89867095e-03, 2.51279324e-02,
          2.05048118e-02, -5.62855368e-03, 1.82802361e-02,
          8.92998185e-03, -1.91131569e-02, -7.95362704e-03,
          -2.10064575e-02, 2.48747040e-03, 1.64457690e-02,
          7.47205550e-03, 3.51716019e-02, 2.90056989e-02,
          -3.85098206e-03, -2.41822358e-02, -1.39314048e-02,
          -6.58300985e-03, -8.96534044e-03, 1.31376497e-02,
          2.48398054e-02, -8.87881778e-03, -4.89860214e-03,
          5.51856915e-03, -1.59012675e-02, 2.17639245e-02,
          -7.67298229e-03, -8.73289444e-03, 1.21660403e-03,
          1.05780754e-02, 7.49256555e-03, -2.63561797e-03,
          -2.43931059e-02, -1.20724579e-02, -1.06073897e-02,
          -4.06734366e-03, 2.57747900e-02, 2.32179631e-02,
          6.42284146e-03, 2.04944666e-02, 7.51078827e-03,
          -1.63267169e-03, 5.22819487e-03, -1.41301686e-02,
          -3.11625702e-03, 1.57112759e-02, 6.50918530e-03,
          3.09570543e-02, 1.25147738e-02, -3.51641141e-03,
          -2.79979929e-02, -2.25440394e-02, -2.61394796e-03,
          -1.74037907e-02, 9.07511543e-03, 1.53628634e-02,
          8.73743929e-03, 1.55163342e-02, 2.10008360e-02,
          -1.21153577e-03, 8.00088421e-03, 5.57244476e-03,
          -1.75761189e-02, -1.66581497e-02, -7.81870540e-03,
          2.17589717e-02, -6.73030328e-04, -2.94083543e-02,
          -2.81310380e-02, 3.95970186e-03, -3.87912220e-03,
          -1.15775960e-02, -1.41856940e-02, -1.09526925e-02,
          2.49838047e-02, -1.08956115e-03, 8.08377564e-03,
          5.48920361e-03, 3.00921611e-02, -8.59089196e-03,
          -3.24837654e-03, -1.35983415e-02, -2.34182570e-02,
          2.97052087e-03, -2.27202708e-03, 5.39074605e-03,
          -1.20622721e-02, 1.96255467e-04, -1.01354215e-02,
          -8.82610865e-03, -1.21088354e-02, -8.10063444e-03,
          5.46945818e-03, 1.94953401e-02, -5.69920242e-03,
          -9.81304329e-04, 3.03575327e-03, 9.58516914e-03,
          -1.56818322e-04, 1.06730117e-02, -9.93632129e-04,
          -3.75673827e-03, -5.51877916e-03, 8.01782869e-03,
          1.20340642e-02, 6.70617027e-03, -1.35152992e-02,
          -5.35916351e-03, -5.43287816e-03, -1.63464975e-02,
          -5.87471807e-03, -9.03806183e-03, -1.94406305e-02,
          3.25626647e-03, 2.68238802e-02, -2.02444475e-02,
          -9.88820475e-03, -9.91958473e-03, 6.92946790e-03,
          4.46108216e-03, 5.17872954e-03, -5.35901682e-03,
          -1.35466764e-02, -2.56931596e-02, -7.41704879e-03,
          -1.05850035e-02, -9.11799725e-03, -1.05255460e-02,
          -9.12094768e-03, -2.34777853e-03, 3.35579924e-03,
          -5.40509960e-03, -2.01297048e-02, 4.95295366e-03,
          1.45598629e-03, -2.80200914e-02, -7.35816546e-03,
          -6.52565435e-03, -1.03003971e-04, -3.54932547e-02,
          8.32007173e-03, 1.14879142e-02, -5.00785373e-03,
          -2.14107409e-02, -1.40943732e-02, 2.25395197e-03,
          -4.22785804e-03, -6.35085860e-03, -1.17955487e-02,
          -1.70690357e-03, 3.11335130e-03, -4.51381095e-02,
          -1.41595248e-02, 3.72661604e-03, -5.45255782e-04,
          -5.62831946e-03, -3.85823357e-03, -1.04022902e-02,
          -4.90977487e-04, -2.40786914e-02, -8.25791154e-03,
          1.64884434e-03, -2.14761589e-02, -4.97702463e-03,
          -6.31818315e-03, -4.13942803e-03, 4.16482706e-03,
          1.37047200e-02, -1.42041710e-03, -7.38939503e-03,
          -2.39961687e-02, -4.18512197e-03, -1.14491358e-02,
          -1.22343088e-02, -7.81408325e-03, -7.34553672e-03,
          1.22753689e-02, -9.79969744e-03, -5.71714081e-02,
          -2.63539534e-02, 2.34953091e-02, 1.07999872e-02,
          -3.85428267e-03, -1.07943891e-02, -3.14944750e-03,
          4.13594432e-02, 1.32248178e-02, 5.51972585e-03,
          -8.99935793e-03, 2.27783341e-02, 1.06891729e-02,
          -8.67746025e-03, -2.50654202e-03, -6.18218305e-03,
          2.60122567e-02, -3.72499488e-02, -5.15632182e-02,
          -3.20659503e-02, 1.28410868e-02, 7.77029712e-03,
          5.00908773e-03, -1.53249837e-02, -1.49302846e-02,
          8.57450347e-03, -1.51553405e-02, -1.27957379e-02,
          -2.62267515e-02, 1.36825927e-02, 8.94912053e-03,
          -5.55865141e-03, -4.37968411e-05, 2.66323122e-03,
          1.57075394e-02, 2.77976394e-02, 6.22062050e-02, 1.17268052e-03,
          1.36335241e-02, 3.31973680e-03, -1.41173927e-03,
          2.72389920e-03, -2.29335222e-02, -7.36096650e-02,
          -6.15286157e-02, 3.30316164e-02, 6.22511283e-03,
          1.99239124e-02, -4.43113083e-03, 1.18488060e-04,
          -1.57581666e-03, 1.48156798e-02, -1.71749555e-02,
          -6.91292137e-02, 5.94164943e-03, -1.81210898e-02,
          -4.93928650e-03, -6.21620100e-03, -2.78701540e-03,
          -9.44579951e-03, -2.42928006e-02, -7.95043111e-02,
          -6.40014261e-02, 6.48266403e-03, -1.58277098e-02,
          -6.02596216e-02, -2.33279187e-02, -7.14142900e-03,
          3.88875324e-03, -2.36746147e-02, -2.93152668e-02,
          -5.22061810e-02, 4.08509560e-02, 6.76638400e-03,
          2.69764680e-02, 7.05469307e-03, 4.10747249e-03,
          -1.39971320e-02, -3.07380166e-02, -1.64216962e-02,
          -3.34169902e-02, 2.80431937e-02, -8.25641677e-03,
          2.08320320e-02, -2.02101073e-04, -7.57134939e-03,
          -1.29174776e-02, -4.59237322e-02, -5.78088164e-02,
          -6.63517192e-02, 1.59046240e-02, -2.39009112e-02,
          -1.18874526e-02, 3.49581358e-03, 4.07310575e-03,
          -5.29291015e-03, -4.43497710e-02, -2.13951226e-02,
          -7.17938989e-02, 5.22574335e-02, -2.51062717e-02,
          1.74878333e-02, -2.13715713e-03, -6.02009241e-03,
          -2.11482886e-02, -3.64488475e-02, 9.56252404e-03,
          2.07238365e-02, -1.57923661e-02, -2.86554894e-03,
          -1.42405601e-02, -1.46405632e-02, -2.62370966e-02,
          4.23964346e-03, -7.83580728e-03, 2.43504588e-02,
          2.93507446e-02, -7.25175999e-03, -5.07615544e-02,
          -7.09848758e-03, 3.49137839e-03, 8.50361772e-03,
          -2.50744633e-02, -4.75143455e-02, -1.23927863e-02,
          -2.99892724e-02, 1.62793715e-02, 5.93174947e-03,
          1.83641966e-02, -2.13762019e-02, -1.69794094e-02,
          9.72713716e-03, -3.05830091e-02, 1.99113885e-04,
          -7.77185755e-03, 2.47102138e-03, -3.82200293e-02,
          1.09202629e-02, -8.32019001e-03, 2.64963508e-02,
          1.44667802e-02, 1.52852042e-02, 1.02540785e-02, 1.81638822e-02,
          -1.30574955e-02, -8.57704040e-03, -1.13936290e-02,
          -4.36185813e-03, 4.28897887e-03, 8.24839436e-03,
          8.61039944e-03, -1.70427709e-04, -1.66532155e-02,
          -5.89138316e-03, -3.49648595e-02, -3.70346457e-02,
          -6.78953016e-03, -5.76363783e-03, 2.29004920e-02,
          2.22939556e-03, 4.34758747e-03, -1.27014359e-02,
          -1.22151142e-02, -3.59386727e-02, -3.90787274e-02,
          -6.69573527e-03, 2.86501795e-02, 3.21809314e-02,
          2.90786996e-02, 7.77369877e-03, 5.31352917e-03, 5.31241782e-02,
          9.89180245e-03, -1.25484224e-02, 1.90646872e-02,
          2.52945181e-02, 1.57575088e-03, 2.76560150e-03, 4.83259046e-03,
          -7.00875791e-03, 2.04754584e-02, -4.10790257e-02,
          -6.73250854e-03, 7.09790597e-03, 8.80971365e-03,
          8.62159580e-03, 3.76134156e-03, 1.11534642e-02,
          -7.40141235e-03, -2.58116238e-02, -3.40798460e-02,
          1.65007133e-02, 2.58337595e-02, 2.01795585e-02, 6.90980256e-03,
          8.42455029e-03, 4.23062919e-03, 1.67178586e-02,
          -1.58564374e-03, -2.09109168e-02, 1.40883131e-02,
          1.49762165e-02, 1.03326589e-02, 6.68335240e-03, 5.47306472e-03,
          2.64858771e-02, 2.26359665e-02, 4.39249771e-03,
          -2.50911736e-03, 1.02719134e-02, 2.33016368e-02,
          1.67214051e-02, 1.12717738e-02, 5.57624316e-03, 9.36473068e-03,
          -3.26275616e-03, -6.18812107e-02, -5.00326827e-02,
          2.64538615e-03, 2.48016752e-02, 1.26306862e-02, 6.93029119e-03,
          2.30743713e-03, 4.16180538e-03, 2.94517865e-03, 3.05125816e-03,
          -1.78221781e-02, 2.12978758e-02, 1.72206983e-02,
          1.21512329e-02, 1.55630289e-02, 4.27015917e-03, 4.39481530e-03,
          -2.40736194e-02, -2.69419514e-02, -4.94874083e-02,
          6.81302743e-03, 1.40094068e-02, 1.14447931e-02, 9.41710826e-03,
          -1.36750599e-03, -5.01892390e-03, 2.46399809e-02,
          7.01238727e-03, 1.29540768e-02, 6.84512826e-03, 5.37120504e-03,
          1.04859481e-02, 4.68450040e-03, 3.45456623e-03,
          -3.84721044e-03, -1.94210988e-02, -1.73445120e-02,
          -1.46444645e-02, -1.78025179e-02, 3.87624907e-03,
          1.50371389e-02, -6.81502861e-04, -3.01764277e-03,
          -2.41795229e-03, -9.24997090e-04, -1.74987391e-02,
          -2.70679332e-02, -2.17312481e-02, -2.48526572e-03,
          1.54603310e-02, -1.51161628e-03, -5.08293509e-03,
          -1.50103392e-02, 2.36276314e-02, 1.66289788e-02,
          2.03065830e-03, -4.91197687e-03, -1.76540203e-02,
          1.20542506e-02, -8.62085377e-04, 1.69619974e-02,
          1.18452385e-02, 2.16611996e-02, -8.24942195e-04,
          -4.33754809e-02, -6.71827421e-03, -4.50082403e-03,
          1.01259127e-02, -6.59437710e-03, -4.93364455e-03,
          1.16231742e-04, -3.17673490e-04, -2.69382894e-02,
          -4.09679429e-04, -6.02647662e-03, -2.46320497e-02,
          -1.74299628e-02, -3.13035701e-03, 7.37934932e-03,
          -7.61458836e-03, 8.37733690e-03, 2.63917334e-02,
          1.99622065e-02, 9.31011792e-03, -8.81170761e-03,
          -2.00278983e-02, -1.65569093e-02, 6.63114712e-03,
          -6.16914639e-03, 6.74781390e-03, -1.28769884e-02,
          -1.85049251e-02, -1.10852793e-02, -1.46873845e-02,
          -1.75503287e-02, -6.00923318e-03, -2.33115815e-02,
          -1.06517989e-02, -2.11489610e-02, 2.71845106e-02,
          3.34347710e-02, -2.85651768e-03, -6.82120351e-03,
          -3.04830857e-02, -2.46918364e-03, -9.60815884e-03,
          -3.10504436e-02, -1.69856474e-02, -1.83295377e-03,
          5.01647359e-03, 9.86473449e-03, -9.08055445e-05,
          -5.15781110e-03, 1.39121860e-02, 2.92248093e-03,
          -3.22364457e-02, -2.02774461e-02, -1.23638159e-03,
          -1.10774022e-02, -3.32130119e-03, -1.29534733e-02,
          1.55546959e-03, 1.01667661e-02, -3.15734409e-02,
          -1.99714657e-02, -8.22405424e-03, 7.98983499e-03,
          2.73572635e-02, 1.07636731e-02, 7.47832330e-03,
          -1.23092672e-03, 1.75254475e-02, 6.61955914e-03,
          1.16112912e-02, -1.53627363e-03, -1.31235840e-02,
          -2.00697148e-04, -4.88053588e-03, 5.38854720e-03,
          2.32767239e-02, 2.21504774e-02, 2.95805372e-03,
          -9.55276843e-03, 1.51160685e-03, 5.19206095e-03,
          -7.17799133e-03, -1.32538304e-02, -1.10950787e-02,
          9.67227668e-03, -1.11952785e-03, -1.92758404e-02,
          2.10177023e-02, 3.11961543e-04, -1.06377956e-02,
          -1.15908328e-02, -1.29171032e-02, -2.15853862e-02,
          -1.48779340e-03, 1.78497806e-02, 8.89373291e-03,
          2.50305012e-02, 1.13558937e-02, -1.26732141e-03,
          7.69776152e-03, 8.86487216e-03, -7.88336992e-03,
          1.32016819e-02, 6.95948862e-03, 9.62773897e-03, 2.92614792e-02,
          -9.65746312e-06, -1.45573094e-02, -4.78534307e-03,
          1.02321701e-02, -7.94723071e-03, -6.73630368e-03,
          1.93097480e-02, 4.85423766e-03, -1.72648318e-02,
          1.10614821e-02, -1.45033151e-02, -3.93263483e-03,
          -8.16712715e-03, -5.45436051e-03, 1.84291066e-03,
          1.70861911e-02, 3.83836739e-02, 1.40097849e-02,
          -3.06259049e-03, -1.59266265e-03, -2.20098738e-02,
          -4.15735357e-02, -2.14891639e-02, 2.14496087e-02,
          7.71698728e-03, -1.52913071e-02, -1.52339879e-02,
          4.33756877e-03, -3.59514379e-03, 1.36823319e-02,
          1.51346065e-02, 6.21612696e-03, -9.12751164e-03,
          7.81359430e-03, 4.85048257e-03, -5.88929560e-03,
          -2.34551504e-02, -3.84841440e-03, -8.06763361e-04,
          -6.87229773e-03, -1.95923680e-03, 2.47507785e-02,
          6.41727587e-03, 1.71256363e-02, 6.38883840e-03,
          -9.34557058e-03, -2.19377130e-02, -1.56177552e-02,
          -1.18893469e-02, -1.67541520e-03, -6.85779785e-04,
          9.05659050e-03, -1.00702485e-02, -1.63765922e-02,
          -2.19871625e-02, -7.93782994e-03, -2.12417962e-03,
          2.80953366e-02, 1.98885482e-02, -1.28498413e-02,
          5.13385702e-03, 6.01792382e-03, 3.15818179e-05,
          -1.52592640e-03, -3.17047164e-02, -8.03192332e-03,
          -1.06759109e-02, -8.04496836e-03, 4.41962807e-03,
          7.00184144e-03, 6.34624297e-03, 1.43805454e-02, 1.86539197e-03,
          8.54110625e-03, -5.74669847e-03, 1.09659331e-02,
          -5.35584288e-03, 1.37240225e-02, 9.33971908e-03,
          -1.85482763e-02, -8.17596354e-03, -1.53365741e-02,
          5.41035784e-03, -1.80611834e-02, 5.07463934e-03,
          -2.21828837e-03, -1.18310470e-02, -5.10830944e-03,
          1.46966928e-03, 3.49033647e-03, -3.71017121e-02,
          3.21275787e-03, 5.40756155e-03, -1.58822071e-03,
          1.84854178e-03, -7.44329719e-03, -7.70716462e-03,
          -3.04284971e-02, -1.70271266e-02, -1.04974688e-03,
          2.05920916e-02, -1.46245454e-02, 1.73201114e-02,
          -6.35656761e-03, -1.03774769e-02, -1.64303035e-02,
          -2.18209215e-02, -9.16836131e-03, 1.29824514e-02,
          1.09311882e-02, 6.19643042e-03, 2.06197128e-02,
          -1.12183942e-02, -8.37911945e-03, -1.38749625e-03,
          2.47889291e-03, -2.33897846e-03, -2.25320105e-02,
          -4.36578430e-02, 1.78457354e-03, -1.19261956e-02,
          -3.89918074e-04, 4.96305246e-03, 3.18595441e-03,
          2.87128612e-03, 7.36438064e-03, -2.10435204e-02,
          -1.68308951e-02, -2.25227028e-02, -1.02367932e-02,
          -4.63518733e-03, 5.06999949e-03, 9.65384825e-04,
          -1.58055278e-03, 1.18702520e-02, 2.04129387e-02,
          -5.03233783e-02, 1.98810715e-02, 4.11193771e-03,
          1.67238328e-03, 6.46015722e-03, 1.69952605e-02, 8.44498165e-03,
          9.24320333e-03, 3.02591808e-02, 1.03070177e-02,
          -2.63593793e-02, 7.32893543e-03, 8.06868076e-03,
          1.59922838e-02, 6.22501690e-03, 5.66894980e-03, 1.32078342e-02,
          -3.75189446e-02, -1.59566551e-02, -4.05745879e-02,
          5.75248990e-03, 7.30649987e-03, 8.74960329e-03, 7.93405576e-04,
          1.44813024e-02, 2.06442811e-02, -2.70175822e-02,
          -4.28542532e-02, -5.78412740e-03, 8.69718473e-03,
          8.26543663e-03, 1.51952682e-03, 1.14855422e-02, 1.12780584e-02,
          6.48827432e-03, 2.21679863e-02, -1.42806144e-02,
          -6.61346167e-02, -2.46585347e-03, 5.68442931e-03,
          1.77758709e-02, 6.44501764e-03, 1.79900844e-02, 5.63308224e-02,
          3.30458581e-02, -2.41197404e-02, -5.86849218e-03,
          9.51308291e-03, 5.49722230e-03, 1.09231314e-02, 1.05335834e-02,
          2.94518452e-02, 1.94754135e-02, -5.07967398e-02,
          -1.33849541e-02, -9.07338224e-03, 2.66349083e-03,
          5.77761605e-03, 8.19689303e-04, 5.74174570e-03,
          -9.19402856e-03, -3.04006990e-02, -6.50060102e-02,
          -1.19810971e-02, -3.28622274e-02, -5.03931679e-02,
          -2.39844085e-03, 2.28517107e-03, 2.51271240e-02,
          3.45099308e-02, 3.80451754e-02, -1.40554383e-02,
          -2.00124104e-02, -1.83707047e-02, 3.21601816e-02,
          1.91621371e-02, 2.28594933e-02, 3.54562066e-02, 1.11677814e-02,
          -1.00432681e-02, -8.09773430e-02, -6.63238764e-02,
          -6.05383627e-02, -3.15501615e-02, 2.02541258e-02,
          2.78361309e-02, -2.99655338e-04, -3.59395631e-02,
          -3.90342735e-02, -3.93455811e-02, 4.93125850e-03,
          -3.56479175e-02, -1.82884913e-02, 1.16900206e-02,
          1.03630228e-02, -1.21763470e-02, -2.72212103e-02,
          -3.08980998e-02, -2.29910593e-02, 5.08509018e-02,
          -5.80743924e-02, 5.75170619e-03, 3.60887032e-03,
          6.61053113e-04, 1.74718052e-02, -3.29169519e-02,
          -5.67258224e-02, -7.24180117e-02, -2.51802225e-02,
          -4.96522598e-02, -1.41742220e-02, 4.42074612e-02,
          4.05317359e-02, 5.73848328e-03, -1.52578671e-02,
          -4.89445478e-02, -4.87292446e-02, 1.97725985e-02,
          -5.95695265e-02, 2.79037654e-03, 2.18853224e-02,
          2.28186436e-02, -1.14755901e-02, -1.86592117e-02,
          -1.43505735e-02, -1.80823337e-02, 2.87947170e-02,
          -1.45614594e-02, 8.26985668e-03, -7.43873045e-03,
          1.00126991e-03, 2.40981043e-03, -1.85584109e-02,
          6.27500843e-03, 1.31929973e-02, -3.42315175e-02,
          -3.30216885e-02, 2.61497474e-03, -1.76566513e-03,
          2.08216384e-02, 1.06933033e-02, 5.47051942e-03, 4.05068044e-03,
          -2.77919471e-02, -4.11928520e-02, -3.80662419e-02,
          8.83978792e-03, 1.16137993e-02, 2.92208865e-02, 2.63334997e-02,
          5.10783726e-03, 5.65952435e-02, 4.12643515e-02,
          -2.32455954e-02, -3.96349393e-02, 9.81758907e-03,
          2.07630601e-02, 3.89606245e-02, 1.20679140e-02, 7.41414167e-03,
          3.35294232e-02, 2.05168538e-02, -3.54596749e-02,
          -3.88683900e-02, -1.46749606e-02, 6.98136492e-03,
          1.79907493e-02, 1.41617982e-02, 2.58802492e-02, 9.64143081e-04,
          2.65770452e-03, 3.89757170e-03, -1.91420205e-02,
          2.05263845e-03, 1.42750954e-02, 3.23716411e-03, 8.86406098e-03,
          1.01935398e-02, 3.42482291e-02, 2.14345977e-02,
          -5.74277267e-02, -6.33894205e-02, -4.49425261e-03,
          2.02974565e-02, 1.82449110e-02, 1.83946844e-02, 2.98260003e-02,
          1.34100602e-03, 2.27354048e-03, -1.25932787e-02,
          -2.05151644e-02, 9.45322961e-03, 1.96846444e-02,
          1.51439160e-02, 7.75492843e-03, 1.06701460e-02, 1.21820671e-02,
          2.93491632e-02, -4.89208056e-03, -4.63064015e-03,
          3.20094265e-02, 1.50959343e-02, 8.22734367e-03,
          -2.51342217e-03, -7.71485735e-03, -3.43111227e-04,
          2.83714700e-02, 1.13869281e-02, -5.43497503e-02,
          1.77283194e-02, 1.05798915e-02, 1.89298147e-03, 2.34302436e-03,
          -7.73197878e-03, 1.03897620e-02, 3.64345009e-03,
          -2.32531186e-02, 2.12864019e-02, 3.18911225e-02,
          1.78077295e-02, 1.60165317e-02, -7.54412496e-03,
          -3.38783376e-02, 1.31627731e-02, -4.37999624e-05,
          2.86766216e-02, -4.10730056e-02, 2.08935160e-02,
          1.63058098e-02, 2.20106058e-02, 9.30757448e-03,
          -4.81291907e-04, -7.22306082e-03, -2.70276088e-02,
          -2.83723641e-02, -4.34731282e-02, 3.57724889e-03,
          4.55211429e-03, 4.99570183e-03, 9.55865532e-03, 1.53510936e-03,
          -1.35821500e-03, 3.25411558e-02, 2.47691385e-02,
          1.09267272e-02, -2.26423936e-03, 2.82870303e-03,
          4.78478940e-03, 5.48691861e-03, 1.99561077e-03, 7.02558827e-05,
          -3.08563113e-02, -2.76375301e-02, -2.75095534e-02,
          -3.29956226e-03, 4.66730678e-03, 1.02089904e-02,
          4.94560366e-03, 2.04018746e-02, 2.57877074e-02,
          -1.29110860e-02, 1.41287185e-02, 2.30011623e-02,
          1.42336506e-02, 4.65948321e-03, -5.86083904e-03,
          3.64773383e-04, -3.76956281e-03, -7.33910967e-03,
          2.33598426e-02, 1.61059480e-02, -1.90705899e-02,
          1.77005108e-03, -3.67185264e-03, 2.65087979e-03,
          -4.33524547e-05, 1.71782020e-02, 2.11002305e-02,
          1.10727288e-02, -8.90897866e-03, -2.15619206e-02,
          1.07369330e-02, 4.10268269e-03, 1.18671432e-02,
          -4.90072882e-03, 6.92128716e-03, 5.58953546e-03,
          -1.43361418e-02, 1.51312957e-02, -7.00259162e-03,
          8.69625900e-03, 2.07200437e-03, -9.53393430e-03,
          -4.53301938e-03, 5.53367054e-03, 1.26136397e-03,
          -3.01690176e-02, -4.02625697e-03, -2.43284535e-02,
          2.82614920e-02, 1.44656179e-02, -1.89105596e-03,
          -3.76736070e-03, 2.88218893e-02, 1.64900962e-02,
          -3.35228145e-02, -3.87279093e-02, -1.74532738e-02,
          -3.86090414e-03, -9.26166121e-03, 3.86538310e-03,
          6.81014638e-03, 1.73334137e-03, 2.29470897e-02,
          -1.08114975e-02, 4.13734242e-02, 2.69660242e-02,
          -4.57193470e-03, -2.96686613e-03, -2.97869975e-03,
          5.31218480e-03, 6.14713412e-03, 6.38945028e-04,
          -5.15182354e-02, -4.13049981e-02, -3.58748324e-02,
          2.21934300e-02, 5.41108102e-03, 6.71840506e-03, 2.75119580e-02,
          1.71349142e-02, 2.60846391e-02, -2.79159285e-02,
          2.65957545e-02, -2.06419714e-02, 1.11722946e-02,
          -2.29679812e-02, -4.08804929e-03, -9.48409070e-06,
          -5.00075929e-02, 3.60295177e-03, 6.46320451e-03,
          8.80503375e-03, 1.15701342e-02, -8.64512380e-03,
          -6.48531551e-03, -4.04748571e-04, -1.85796246e-02,
          -1.69876236e-02, 3.80479395e-02, 3.74058448e-03,
          -8.99866875e-03, -1.41875586e-03, 2.95104529e-03,
          3.85731715e-03, -1.38983112e-02, -7.29029626e-03,
          -2.35471316e-02, 1.51680651e-04, -1.74901672e-02,
          2.77838819e-02, -1.11945961e-02, -2.54220865e-03,
          -1.15940301e-02, -1.66753475e-02, -4.74107303e-02,
          -2.50495505e-02, 1.83609559e-03, -1.22185855e-04,
          1.67532153e-02, 6.76352810e-03, -2.63868608e-02,
          -1.96528882e-02, -4.00652476e-02, -1.32307801e-02,
          1.09956497e-02, 3.49690132e-02, 1.17426859e-02,
          -4.40228311e-03, -4.91890591e-04, 5.81075158e-03,
          -5.71677741e-03, -2.01722663e-02, -9.75198764e-03,
          2.15280000e-02, 3.06602567e-02, 8.29034857e-03,
          -5.27339755e-03, -7.85289053e-03, -3.95911373e-03,
          -1.14301657e-02, -2.43652649e-02, -2.15010922e-02,
          1.31346798e-02, 2.85981502e-02, 2.55733673e-02,
          -5.91716124e-03, 1.80850597e-03, -1.47644766e-02,
          -1.79341603e-02, -3.32777612e-02, -2.38242489e-03,
          2.15221588e-02, 1.34389885e-02, 2.24194378e-02,
          -6.26599463e-03, -7.43797747e-03, -9.86150093e-03,
          -1.43014230e-02, -4.67541721e-03, -2.12061722e-02,
          -1.47707397e-02, -4.92453342e-04, -1.42757706e-02,
          5.50352316e-03, -3.07756523e-03, 1.76908765e-02,
          7.01556390e-04, -1.43322125e-02, -3.26596480e-03,
          -7.47761736e-03, -2.67448667e-02, -3.90593968e-02,
          5.97859267e-03, 6.95245620e-03, 2.02093609e-02, 1.91157758e-02,
          6.94282679e-03, -1.71128660e-02, 3.57848266e-03,
          8.85071931e-04, -8.11743177e-03, 7.35840062e-03,
          -1.77285559e-02, 1.70998753e-03, -6.82147266e-03,
          -6.51381619e-04, -1.82788838e-02, -6.96457340e-04,
          -7.35693704e-03, -1.27215451e-02, 3.38110887e-02,
          -9.21244442e-04, -6.59697782e-03, 2.26759780e-02,
          1.78011954e-02, 2.38439115e-03, 7.15645612e-04,
          -1.36388531e-02, -1.55847864e-02, -1.86981484e-02,
          6.36909809e-03, 4.46808990e-03, 1.01306541e-02, 1.61577966e-02,
          -3.36970622e-03, -9.85845085e-03, -7.95776211e-03,
          -1.69286728e-02, 7.92899728e-03, 2.09012590e-02,
          1.70188677e-02, 5.53803332e-03, 2.46428009e-02,
          -1.54307634e-02, -4.73458925e-03, -2.77200271e-03,
          -7.85880536e-03, 6.34870771e-03, 1.18262565e-03,
          -6.62037730e-03, 4.40310091e-02, 2.33799871e-02,
          1.73300621e-03, -7.49712950e-03, -3.85349733e-03,
          1.03131728e-02, -7.16813700e-03, 2.18695728e-03,
          -1.00633949e-02, 4.41720616e-03, 1.32915042e-02,
          -1.09262513e-02, -2.30039451e-02, -2.60638371e-02,
          -1.59183629e-02, 1.83257237e-02, 8.62612482e-03,
          1.31158885e-02, 9.18028934e-04, -8.32658377e-04,
          -9.79957543e-03, -2.05910411e-02, -1.03601664e-02,
          1.36980889e-02, 2.25288402e-02, 1.91739164e-02, 1.84074566e-02,
          -8.73208701e-05, 4.94259968e-03, -3.84300249e-03,
          3.81542393e-03, -7.85059202e-03, 3.92531184e-03,
          -9.49958060e-03, -1.16657279e-02, -2.76841726e-02,
          -2.09351741e-02, -6.69444678e-04, -8.60961061e-03,
          2.09692027e-03, 2.36580311e-03, -4.12077038e-03,
          -1.01308236e-02, 2.15377025e-02, -1.05660073e-02,
          1.30959777e-02, 3.38955829e-03, -5.44478185e-03,
          -5.27301896e-03, 6.60922937e-03, 8.70852964e-04,
          -1.74788348e-02, 1.54686713e-04, 5.11286734e-03,
          -6.98760059e-03, -1.90326374e-03, 1.46770580e-02,
          1.67591684e-02, 8.96523893e-03, 5.09232935e-03,
          -3.68086481e-03, -2.96345502e-02, 1.02095408e-02,
          2.16935342e-03, 1.60593214e-03, -9.20564029e-03,
          -2.48233625e-03, 1.01880049e-02, 1.55190690e-04,
          -2.41556596e-02, -2.04483625e-02, -7.94860814e-03,
          -5.34844585e-03, -8.11802782e-03, 1.82486866e-02,
          1.50589533e-02, 5.88167179e-03, -5.99567266e-03,
          -1.85300708e-02, -8.76319408e-03, -3.92137934e-03,
          -1.80505752e-03, 1.35306688e-03, 1.74417961e-02,
          1.70840956e-02, 1.59458108e-02, 3.08132973e-02,
          -4.88157868e-02, -5.96930198e-02, 3.04954057e-03,
          2.20501330e-02, 2.02325936e-02, 1.78054208e-03, 4.57321433e-03,
          3.38080600e-02, 3.37217450e-02, -7.95510132e-03,
          1.57694216e-03, 2.56747603e-02, 1.43833430e-02, 2.89274682e-03,
          1.93602797e-02, 7.13617261e-03, 1.15929637e-02, 9.47721209e-03,
          -4.51334417e-02, 2.41028029e-03, -1.09791541e-02,
          1.17970956e-03, 1.57519244e-02, 1.01340795e-02, 1.43653080e-02,
          3.74468043e-02, 4.50442210e-02, -7.58385519e-03,
          -6.78964034e-02, -1.65320206e-02, 3.17932703e-02,
          6.53148396e-03, 2.43791137e-02, 2.04826966e-02, 1.57683305e-02,
          -1.87890269e-02, -3.19404937e-02, -5.76424832e-03,
          3.30545194e-02, 2.96850856e-02, 1.47193968e-02, 2.34520193e-02,
          -7.52749434e-03, -2.71301698e-02, -9.51019451e-02,
          -9.31701064e-02, -5.90491034e-02, -5.12581803e-02,
          4.45324788e-03, 1.50136016e-02, 2.28737183e-02, 2.24120356e-02,
          3.20031680e-02, 1.48398699e-02, -7.41829723e-03,
          -8.78694840e-03, 3.03724371e-02, 6.76809624e-02,
          2.46724728e-02, 1.42949093e-02, 8.39266344e-04,
          -5.00521110e-03, -4.08210643e-02, -7.08570853e-02,
          -7.07799345e-02, -1.45797282e-02, 1.20017640e-02,
          1.20214960e-02, 1.18986042e-02, -3.08806170e-02,
          -4.48269807e-02, -9.15635601e-02, -3.45913842e-02,
          -5.19877411e-02, -1.30163739e-02, 3.68591212e-02,
          2.68454961e-02, 1.42348269e-02, -3.09769083e-02,
          -5.81267923e-02, -4.78405170e-02, 2.85349805e-02,
          -3.41710784e-02, 7.96330906e-03, 3.28210518e-02,
          4.33119275e-02, 1.50034400e-02, -4.61665774e-03,
          -1.02269063e-02, -5.74694686e-02, -4.60246280e-02,
          -7.21264258e-02, -2.62899194e-02, 1.09241689e-02,
          1.13364812e-02, 2.52437647e-02, 9.04089678e-03,
          -1.64372679e-02, -4.52394746e-02, 7.72404578e-03,
          -5.94250858e-02, -1.43989408e-02, 6.37871958e-03,
          7.20268581e-03, 4.09456901e-03, 1.92670450e-02,
          -2.04422493e-02, -3.65731493e-02, -1.49678048e-02,
          -3.31275947e-02, -1.29286188e-03, 1.37656266e-02,
          2.28425600e-02, 4.12552767e-02, 2.48048883e-02, 2.20781937e-02,
          -2.63981577e-02, -4.51067761e-02, -2.48498861e-02,
          -1.03304219e-02, -9.79507808e-04, 3.29127498e-02,
          -2.22059153e-03, 8.31782911e-03, -6.04251102e-02,
          -1.98565703e-02, -2.22104583e-02, -3.62200662e-02,
          -1.20886872e-02, -2.49709655e-03, -2.31785104e-02,
          3.52862701e-02, -1.81269206e-04, 5.49111795e-03,
          -1.71454065e-02, -9.70128179e-03, -1.49033424e-02,
          -1.01847406e-02, -1.18076976e-03, 4.98113036e-03,
          3.95729393e-02, 2.57508680e-02, 1.56314112e-02, 1.58755481e-02,
          -6.06057905e-02, -1.83815006e-02, -3.98595911e-03,
          9.02507361e-03, 2.47883331e-02, 1.88194122e-02, 2.10160613e-02,
          -2.26532277e-02, -1.53546594e-02, -3.02223936e-02,
          -5.98555105e-03, -3.77786742e-03, 1.01181967e-02,
          1.86597910e-02, 2.15312410e-02, 3.04936245e-03, 3.37231933e-04,
          -3.22058797e-02, -3.87415872e-03, 1.09281177e-02,
          4.25421773e-03, 1.39054060e-02, 2.20028143e-02, 1.73598826e-02,
          2.41030217e-03, -3.61856706e-02, -7.72748813e-02,
          1.03027904e-02, 1.28275771e-02, 9.36214812e-03, 1.15557238e-02,
          3.02177761e-02, 1.31038111e-02, 3.32711823e-03, 8.76841228e-03,
          -8.96949973e-03, -3.18186842e-02, 2.96824798e-02,
          1.64120514e-02, 1.18497713e-02, 2.15987489e-02, 1.46184806e-02,
          -1.56064741e-02, 1.48607539e-02, -3.87815870e-02,
          -2.05618106e-02, -5.15286578e-03, 1.72020011e-02,
          1.21248299e-02, 2.79647764e-02, 1.32072819e-02,
          -7.68522313e-03, 1.30297085e-02, -2.25628112e-02,
          1.25943450e-02, 3.49228419e-02, 2.15866640e-02, 1.24252290e-02,
          1.99642070e-02, 2.23373119e-02, 7.13185268e-03,
          -6.78392360e-03, -2.46164631e-02, -4.02157232e-02,
          1.41503718e-02, 2.22048629e-02, 9.24078654e-03, 2.54921727e-02,
          1.02802226e-02, 3.69358808e-03, -4.55839647e-04,
          -5.23160882e-02, -6.06726743e-02, -1.06579289e-02,
          4.34659421e-04, 4.08072164e-03, 1.81169547e-02, 6.50148187e-03,
          3.10975369e-02, 3.79644781e-02, -2.06504669e-03,
          -9.77137033e-03, -9.09584481e-03, -5.89364627e-03,
          5.62953530e-03, 4.66532074e-03, 1.32465307e-02, 6.74635638e-03,
          -3.93227823e-02, -3.33480909e-02, -2.33529303e-02,
          2.33369460e-03, 4.99633420e-03, 5.05282497e-03, 1.99500229e-02,
          1.19816428e-02, 1.90485064e-02, 2.44934810e-03, 2.62521766e-02,
          -3.59157403e-03, -9.82497819e-04, -2.21490748e-02,
          -4.89238696e-03, 1.22805135e-02, 6.98373769e-04,
          6.09575398e-03, 3.04971226e-02, 4.33580158e-03, 9.99178831e-03,
          -1.60943530e-02, -4.60573239e-03, 7.10099004e-03,
          -4.80988296e-04, -5.78375068e-03, -1.42853726e-02,
          3.44609842e-03, -3.69420648e-02, -1.22064454e-02,
          -1.56915169e-02, 7.16998708e-03, 9.49907117e-03,
          -1.38717126e-02, 9.30046756e-03, 7.79015012e-03,
          2.35319119e-02, 2.18489729e-02, -2.30751354e-02,
          -3.92509671e-03, -1.69062316e-02, -4.86160722e-03,
          1.01525765e-02, -3.90027813e-03, -1.58279277e-02,
          2.31178924e-02, -2.42982022e-02, -2.84725912e-02,
          3.85965314e-03, 1.61212010e-04, -5.15542179e-03,
          -8.80690012e-03, 1.23295952e-02, -1.13414535e-02,
          -2.00446509e-02, -4.53150049e-02, -1.97845325e-02,
          -4.40771170e-02, 6.41266210e-03, 1.60848703e-02,
          7.10940268e-03, 2.94065438e-02, 2.43518762e-02,
          -6.35674922e-04, -2.22337805e-02, 2.70589683e-02,
          -2.49263961e-02, 9.98255797e-03, -4.10603592e-03,
          7.62403430e-03, -1.34704737e-02, 5.20123262e-03,
          1.36118922e-02, -1.12664364e-02, 2.29996140e-03,
          -2.15082783e-02, -1.48446904e-02, -6.70306385e-03,
          -1.82102360e-02, 1.45340823e-02, 3.56089696e-02,
          2.75495369e-02, 3.38227637e-02, 3.92639674e-02,
          -1.38072716e-02, -3.33993286e-02, -8.59968364e-03,
          3.63225467e-03, 5.38814813e-04, 6.37192163e-04,
          -1.82932485e-02, -1.64716039e-02, 1.76876448e-02,
          -1.68911703e-02, 3.66772688e-03, -2.96045188e-03,
          -6.02322863e-03, -2.31090263e-02, -2.06715707e-02,
          -1.46792978e-02, 2.05956064e-02, 1.95656996e-02,
          3.19535518e-03, -1.52213229e-02, -1.79969724e-02,
          -1.64112132e-02, 1.47412308e-02, 1.10457717e-02,
          -2.62732804e-02, -1.74891655e-04, 1.05125494e-02,
          -2.16265675e-02, -2.52523087e-02, -1.25326244e-02,
          -4.27833106e-03, 1.66153815e-02, -1.11724585e-02,
          -2.46550571e-02, 2.68832278e-02, 1.48122841e-02,
          7.67289056e-03, -2.19822340e-02, -1.05940527e-03,
          -1.03548048e-02, -1.23413280e-03, 6.32929895e-03,
          5.57285734e-03, 3.15004215e-02, -1.04964096e-02,
          9.80478013e-04, -8.67980625e-03, -2.51104794e-02,
          -1.65006500e-02, -1.73513754e-03, -1.71895794e-04,
          -9.69271641e-03, 8.68145935e-03, -9.84614715e-03,
          6.26043743e-03, -4.41504223e-03, -1.75621994e-02,
          -7.63338432e-03, 2.27833334e-02, 5.61475614e-03,
          -2.22961009e-02, 2.25954279e-02, 7.89529760e-04,
          -2.74443603e-03, 4.48635453e-03, -4.09793761e-03,
          -1.76396389e-02, -9.71059594e-03, 9.58661735e-03,
          -2.06835265e-03, 2.31043734e-02, -8.69790383e-04,
          -2.71173799e-03, 2.18565594e-02, 3.25733470e-03,
          -2.08077282e-02, -2.64234673e-02, 1.43767032e-03,
          -1.89222232e-03, 4.84434282e-03, 3.20543768e-03,
          -8.41414928e-03, -2.13133963e-03, -3.22213769e-03,
          1.27981126e-04, -7.86117278e-03, -1.36133924e-03,
          -2.44810805e-03, 1.38234813e-02, 2.40973551e-02,
          1.89004015e-04, -2.14163046e-02, -1.33064960e-03,
          4.69205063e-03, -2.65529435e-02, -1.07513713e-02,
          -1.58725455e-02, -1.55617646e-03, -2.29862034e-02,
          -1.37953954e-02, -8.39398708e-04, -1.26567967e-02,
          1.07150003e-02, 9.05959681e-03, 1.28111651e-03, 2.02439819e-02,
          1.84869941e-03, -1.20080160e-02, -7.95171689e-03,
          -1.40063732e-03, -2.73741968e-02, 7.04420556e-04,
          -2.10818532e-03, -4.77225799e-03, 3.94957326e-03,
          2.09365487e-02, 1.12935938e-02, -1.01382667e-02,
          -1.58077870e-02, 1.13923913e-02, 6.35013124e-03,
          -9.79286432e-03, 1.48755582e-02, 1.44901518e-02,
          3.46660502e-02, -1.14235131e-03, -1.50532415e-02,
          -2.02103034e-02, -1.82660688e-02, -4.30824608e-03,
          3.47537547e-03, -6.68877969e-03, 5.97017119e-03,
          -1.22134120e-03, -1.44281695e-02, -9.57498234e-03,
          1.32370759e-02, 2.96234898e-03, 1.39406286e-02,
          -1.79270934e-02, -1.44532304e-02, -3.17705385e-02,
          -2.40374710e-02, -6.56762300e-03, -2.59983689e-02,
          9.82099865e-03, 4.46582073e-03, 3.61122703e-03,
          -6.87414315e-03, 1.67184956e-02, 2.25739479e-02,
          1.82320867e-02, 7.22451089e-03, -1.00865271e-02,
          -1.61310304e-02, -2.40368303e-02, 7.92826759e-04,
          -9.72121954e-03, 1.32668568e-02, 6.68996992e-03,
          3.76161910e-03, -1.17060533e-02, -2.99453805e-03,
          -8.78233742e-03, 8.50319397e-03, 1.13994917e-02,
          -8.88266042e-03, -4.68434300e-03, -7.38559291e-03,
          -6.53017918e-03, 7.25707272e-03, -2.30862051e-02,
          6.95434632e-03, 1.12749506e-02, -1.57030823e-03,
          -8.11705948e-04, -3.07009020e-03, -2.28499528e-02,
          -2.19865236e-02, -3.31115387e-02, -1.12694660e-02,
          1.06078694e-02, 6.33228011e-03, 6.88762916e-03,
          -1.90326404e-02, -4.39836504e-03, 2.28019097e-04,
          -2.37318757e-03, 1.31411133e-02, 1.55998962e-02,
          -8.69826134e-03, -2.19914056e-02, -1.42414467e-02,
          3.83568322e-03, 6.13829074e-03, -9.13516153e-03,
          -1.71579905e-02, 4.66152187e-03, -7.79452408e-03,
          3.80035606e-03, -5.48090320e-03, -5.55177452e-03,
          -5.46704559e-03, -1.14810225e-02, -3.55734117e-02,
          -2.47989483e-02, -2.66341325e-02, -1.08790747e-03,
          5.44733834e-03, -1.91472154e-02, 2.48573790e-03,
          -1.33989044e-02, -8.38841032e-03, 1.61745920e-04,
          -2.40827333e-02, -1.72284618e-02, -1.23623759e-02,
          6.56556943e-03, -1.49047133e-02, -2.00160872e-02,
          1.09428456e-02, 8.65179393e-03, 1.26314387e-02, 1.10611813e-02,
          -1.60166938e-02, -1.14024924e-02, 2.24244725e-02,
          -2.36287713e-03, -3.41270212e-03, 4.77042748e-03,
          1.97168831e-02, 4.64889035e-02, 4.85277548e-02,
          -6.22604601e-03, -6.68821633e-02, -1.63615178e-02,
          1.03950463e-02, -1.33472476e-02, 4.46335645e-03,
          -2.28730356e-03, 1.04649533e-02, 7.31462799e-03,
          1.02621773e-02, 8.23479239e-03, 2.40494055e-03,
          -4.28328589e-02, -2.83071660e-02, 2.82808673e-02,
          2.04377268e-02, 2.77771689e-02, 2.72030644e-02,
          -4.31389268e-03, -5.07943369e-02, -4.95373318e-03,
          1.58411786e-02, 1.04405023e-02, 2.95535028e-02, 3.65284868e-02,
          4.78740036e-02, 3.27884257e-02, -1.66788455e-02,
          -5.96975535e-02, -8.80989060e-03, 3.85810211e-02,
          3.43228616e-02, 2.16333778e-03, 2.26379819e-02, 1.61271244e-02,
          -1.02441367e-02, -2.01647710e-02, -6.62462637e-02,
          -1.02561833e-02, 2.48575187e-03, -1.08389501e-02,
          2.57912613e-02, 2.47993208e-02, 3.33065651e-02, 2.61797439e-02,
          -1.43134315e-02, -8.53964686e-02, -6.03376031e-02,
          -1.10312765e-02, 3.66517343e-02, 1.25071108e-02,
          3.52966972e-02, 2.48168930e-02, 3.79439555e-02, 5.36723770e-02,
          -4.60624835e-03, -3.08974124e-02, 6.77484088e-04,
          -2.34513488e-02, -1.01998933e-02, 1.02616521e-02,
          7.74197374e-03, -2.90315901e-03, 6.73062541e-03,
          -4.68287542e-02, -3.28567289e-02, -4.13669050e-02,
          -4.66422215e-02, -3.87867354e-02, -4.64473478e-02,
          -3.88730727e-02, 6.31715156e-05, 1.07390974e-02,
          -6.11053407e-03, -4.29490432e-02, -2.95100007e-02,
          -4.18500789e-02, 1.54093467e-02, 1.56043507e-02,
          4.04092623e-03, 3.79211679e-02, 5.93960099e-02, 6.13751933e-02,
          1.30125899e-02, 1.57248303e-02, -1.03669763e-02,
          -2.37931982e-02, -5.49895130e-02, -4.08770740e-02,
          3.53230983e-02, 5.15111797e-02, 4.41639163e-02,
          -1.11553306e-02, 7.64863426e-03, 5.89816505e-03,
          -4.28723134e-02, -2.27554794e-02, -6.76031485e-02,
          -4.87667276e-03, -2.44560651e-02, -3.83379374e-04,
          -1.07099069e-02, -3.05035594e-03, -5.27368337e-02,
          6.72439113e-03, 2.30116909e-03, -1.07361805e-02,
          -3.63559201e-02, 1.32435923e-02, 1.41708581e-02,
          1.87960658e-02, 1.49411075e-02, -1.02948733e-02,
          -2.02484783e-02, -2.38734819e-02, -2.48397514e-02,
          4.33371849e-02, 4.51205447e-02, 3.61251384e-02, 2.48565059e-02,
          2.78220102e-02, 1.18625956e-02, 5.31971501e-03, 8.67071748e-03,
          -2.16707382e-02, -3.79540958e-02, 2.24822685e-02,
          2.82754861e-02, 4.15284522e-02, 2.99402252e-02, 2.63406690e-02,
          -1.76337659e-02, -2.36571729e-02, -4.25068252e-02,
          -6.89368397e-02, 2.92498665e-03, 1.41617786e-02,
          1.20016737e-02, 1.65137518e-02, 4.95380908e-03, 1.31949224e-02,
          -7.12409988e-03, 4.74693207e-03, -7.49438629e-02,
          -5.53704426e-03, 1.29266726e-02, 1.79244932e-02,
          2.02650744e-02, 2.54141428e-02, 3.79541442e-02, 3.54082473e-02,
          -9.90695506e-03, -5.21256104e-02, 1.42547060e-02,
          2.75098141e-02, 3.06855924e-02, 2.75019743e-02, 2.65978537e-02,
          6.92900717e-02, 2.34123971e-02, 2.39663087e-02,
          -7.87586793e-02, 7.81293306e-03, 3.56920399e-02,
          1.73546039e-02, 1.89165026e-02, 2.41322555e-02, 5.32616349e-03,
          -5.21105900e-03, -6.39933022e-03, -3.99040207e-02,
          3.33375596e-02, 2.74894647e-02, 1.75489057e-02, 1.27276033e-02,
          1.47910742e-02, 1.60010383e-02, 1.69609636e-02,
          -4.05458845e-02, -2.25117709e-02, 2.65414128e-04,
          2.83815376e-02, 1.97133794e-02, 9.97510273e-03, 1.48603776e-02,
          2.52347309e-02, 2.99421679e-02, -4.93787462e-03,
          -6.44282401e-02, 3.50554064e-02, 2.49789059e-02,
          1.79364365e-02, 1.06236227e-02, 1.43838972e-02, 1.80730093e-02,
          6.12501837e-02, -3.31599675e-02, -4.44038324e-02,
          -1.43177994e-02, 2.75373925e-02, 1.00131137e-02,
          9.44579672e-03, 2.08515655e-02, 1.03578223e-02, 1.06742745e-02,
          -3.99491712e-02, -5.20619079e-02, -1.56708527e-02,
          1.02295715e-03, -1.14394492e-02, -2.68150540e-03,
          1.50118330e-02, 1.06568132e-02, 9.89610236e-03,
          -6.12447457e-03, 2.32655648e-02, 4.36282828e-02,
          -2.38281861e-03, -3.88550125e-02, -2.41360590e-02,
          5.71973855e-03, 1.36472443e-02, 2.80351955e-02,
          -2.45065372e-02, -3.64453867e-02, -2.49191634e-02,
          1.05752792e-04, -1.18942242e-02, -8.24888051e-03,
          1.48221059e-02, 1.25630787e-02, 5.13778860e-03, 5.80987753e-03,
          2.41715182e-02, 3.23045366e-02, 1.40397102e-02,
          -5.19469986e-03, -2.18942147e-02, -6.46582618e-03,
          4.13129013e-03, 1.30769797e-02, 5.03157172e-03, 1.31449504e-02,
          8.26897100e-03, -2.89538386e-03, -3.01033091e-02,
          -3.01830377e-02, -5.55188721e-03, -1.24914823e-02,
          7.36231729e-03, 7.22930254e-03, -1.90440547e-02,
          -2.96931975e-02, 6.10157149e-03, 8.79893414e-05,
          -1.68548059e-02, -1.50799928e-02, 2.19197497e-02,
          1.58433756e-03, 1.13527803e-02, 5.38862171e-03, 6.73661102e-03,
          -8.61842558e-03, -1.41171115e-02, -2.42949855e-02,
          2.04917300e-03, 8.82031303e-03, 3.11573744e-02, 1.86690167e-02,
          5.20789530e-03, 1.00562107e-02, 8.70951684e-04,
          -4.18646866e-03, -1.67289618e-02, -5.54135349e-03,
          -3.27541120e-02, 7.01258751e-03, 8.96659121e-03,
          -1.85522251e-02, -5.82943484e-03, -2.48127291e-03,
          -2.52721664e-02, -2.76191980e-02, -3.93571705e-02,
          -2.73400359e-03, 2.83108056e-02, 2.09196229e-02,
          1.81817207e-02, 1.75876152e-02, -3.24758701e-02,
          -4.58818264e-02, -2.96984632e-02, -1.98128540e-02,
          -2.83725224e-02, 1.53876478e-02, 3.10518052e-02,
          9.07173101e-03, -1.32231286e-03, -1.79414084e-04,
          -2.64462847e-02, -3.26919891e-02, -4.07444760e-02,
          7.97053857e-04, 2.58044042e-02, 4.33430709e-02,
          -7.38215121e-03, 2.66890023e-02, -1.65041424e-02,
          -3.49075571e-02, -3.30318324e-02, -1.83930583e-02,
          1.06288912e-02, 9.15533956e-03, -2.30273400e-02,
          5.28973155e-03, -5.33051183e-03, -2.31441744e-02,
          -3.21924537e-02, -5.36380196e-03, -1.02983016e-04,
          -6.93351263e-04, -7.47008109e-03, -3.51675451e-02,
          2.34726723e-02, 2.72510704e-02, 3.84161389e-03,
          -2.45230086e-02, -5.72950905e-03, -1.99872106e-02,
          -1.53196021e-03, -9.12303198e-03, -6.90103974e-03,
          2.71934434e-04, -2.11422611e-03, -1.76114030e-02,
          -2.93864626e-02, -7.74760614e-04, 2.99818069e-03,
          -2.00426802e-02, -3.24876085e-02, -2.95432433e-02,
          1.39320586e-02, 2.18888856e-02, 9.81934834e-03,
          -2.36575752e-02, 9.74036194e-03, -8.36390536e-03,
          -1.77033106e-03, -5.80810150e-03, -2.85915099e-02,
          2.48818495e-03, 1.40984599e-02, 1.54982824e-02, 1.82216223e-02,
          9.08842031e-03, -3.13795172e-03, -2.05561351e-02,
          -9.67653177e-04, -3.80764045e-02, -2.85081882e-02,
          -2.35257261e-02, 5.41135296e-03, 4.37655151e-02,
          7.33646145e-03, -1.86159683e-04, -1.46598304e-02,
          -2.07563043e-02, -1.59108527e-02, -2.70300033e-03,
          9.53317340e-03, 1.22350333e-02, 9.28533264e-03, 2.02017743e-02,
          1.02170892e-02, -1.47183230e-02, -1.68457255e-02,
          -3.57742049e-02, -4.08017747e-02, -1.60185769e-02,
          1.72857679e-02, 2.97843255e-02, 2.53396370e-02, 1.73090734e-02,
          1.98982144e-03, -9.73025628e-04, -9.45071597e-03,
          1.42359675e-03, -2.20872294e-02, 9.22990090e-04,
          1.81139205e-02, -1.12144826e-02, 7.02700950e-03,
          -7.30668288e-03, -1.81811154e-02, 1.08978190e-02,
          -1.71111859e-02, -4.01719753e-03, 4.17917874e-03,
          2.91923396e-02, -1.67459771e-02, 1.09984362e-02,
          1.80875715e-02, 1.34797748e-02, 4.79875552e-03,
          -6.02353318e-03, -3.56982611e-02, 2.08744369e-02,
          2.42160149e-02, -1.17956866e-02, -1.25086801e-02,
          6.54673157e-03, 4.38596075e-03, 3.39211896e-02,
          -1.30087845e-02, -4.92319930e-03, 2.45955102e-02,
          1.65356472e-02, -2.33337842e-02, -8.78167618e-03,
          -9.70130600e-03, -2.07534265e-02, -1.48689179e-02,
          -3.06223556e-02, 1.62106741e-03, 2.92135496e-02,
          4.18612622e-02, 3.08663724e-03, 7.42030283e-03,
          -3.42012057e-03, -3.06639913e-02, -4.68916334e-02,
          -3.44142839e-02, -1.25130713e-02, 2.33218390e-02,
          2.59408467e-02, 8.88186786e-03, 1.03972312e-02, 1.61690116e-02,
          -1.03600034e-02, 7.91042286e-04, -1.24837253e-02,
          -1.02388496e-02, 4.04563621e-02, 3.09432968e-02,
          4.95847268e-03, -2.00198311e-03, 2.61017270e-02,
          -1.14021532e-03, -5.46456594e-03, -1.74502861e-02,
          -1.99798178e-02, 1.37092248e-02, 2.57043857e-02,
          3.99154983e-02, 3.03327590e-02, 2.71805655e-03,
          -2.66559180e-02, -2.19304096e-02, -2.13685888e-03,
          -1.00859646e-02, 1.29238656e-02, 1.55746052e-02,
          1.42908907e-02, 1.19026005e-02, -7.80294370e-03,
          -1.97769664e-02, -1.54498629e-02, 4.83328663e-03,
          -3.85309123e-02, 2.52669416e-02, 2.30106860e-02,
          1.53542506e-02, 9.46886931e-03, 1.93447173e-02,
          -1.41876312e-02, -3.53943789e-03, -1.10967383e-02,
          -2.81908847e-02, -1.01535162e-02, 2.75746733e-02,
          2.78598946e-02, 2.49918234e-02, -8.77176877e-03,
          -2.07893550e-02, -1.99463237e-02, -1.67842791e-03,
          -2.40587182e-02, 4.30822484e-02, 3.47856395e-02,
          3.23806563e-03, -3.83520802e-03, -8.51015653e-03,
          -1.36463735e-02, -2.03376487e-02, -6.49314234e-03,
          -3.53536457e-02, 1.07139228e-02, 5.53463446e-03,
          -1.92311388e-02, -5.19569544e-03, -1.19251562e-02,
          -9.34890937e-03, 1.73016544e-02, 1.13268998e-02,
          -5.89009002e-03, 8.92397016e-03, -1.60143822e-02,
          -1.10765435e-02, -2.16234452e-03, -1.33368373e-02,
          -3.45683731e-02, -9.25063062e-03, 1.24424715e-02,
          -1.62798762e-02, 2.82012280e-02, -2.56935088e-03,
          -3.47303301e-02, -2.76454333e-02, -2.30186693e-02,
          -1.80253889e-02, 1.88989807e-02, 2.42302492e-02,
          -3.01391096e-03, 1.27647538e-03, -2.57075615e-02,
          -3.06743495e-02, -6.51955139e-03, -3.39307706e-04,
          -1.14395898e-02, 5.20293042e-03, -5.34353917e-03,
          1.11875059e-02, -2.07906850e-02, -1.66124590e-02,
          -7.36534479e-04, 1.37658312e-03, 1.45871537e-02,
          1.00110832e-03, -1.19397987e-03, 1.31324443e-04,
          -1.22608384e-02, -4.05247174e-02, -1.07788797e-02,
          3.87305617e-02, 2.08850354e-02, -1.10356603e-02,
          -1.34123601e-02, 1.02819297e-02, 5.97542059e-03,
          2.19876925e-03, 1.40945828e-02, -1.27393985e-02,
          5.58242342e-03, -9.07655992e-03, -6.31800853e-03,
          -7.67540594e-04, -2.29230407e-03, 8.73711798e-03,
          -1.27679370e-02, -7.26328138e-03, -3.37579474e-02,
          -9.36432183e-03, -1.26349786e-02, 2.25697514e-02,
          1.58043802e-02, 2.03879550e-02, 2.18300782e-02, 6.29067793e-03,
          -6.78912103e-02, -5.80730103e-02, -2.48120842e-03,
          3.13698612e-02, 3.75695936e-02, 2.61547528e-02, 2.29835752e-02,
          3.48154157e-02, 5.37151359e-02, 4.58755577e-03,
          -2.71148141e-02, -1.84402391e-02, 1.73307415e-02,
          -5.98186208e-03, 1.57835316e-02, 1.23751629e-02,
          2.83667371e-02, 4.80552576e-03, -1.05566150e-02,
          -4.99949977e-02, -2.74328962e-02, 1.33319786e-02,
          2.39988640e-02, 2.49597449e-02, 2.70993710e-02, 4.19713110e-02,
          1.09822303e-02, 4.20958037e-03, -6.80330098e-02,
          -3.34231742e-02, -2.15305015e-02, 2.84352005e-02,
          1.24900509e-02, 6.87745772e-03, 2.53046192e-02, 3.99143100e-02,
          2.68386528e-02, -1.27317691e-02, -3.63953821e-02,
          -3.01682088e-03, 2.00456725e-05, -3.57740782e-02,
          -4.35142592e-02, 5.08894213e-03, 2.35101618e-02,
          6.46993704e-03, 6.71729259e-03, 1.02109434e-02, 3.47349457e-02,
          2.02859379e-02, 1.04323840e-02, 1.79926548e-02, 3.79592851e-02,
          -2.62657478e-02, -1.29045527e-02, -5.89678474e-02,
          -9.42233577e-02, -5.04157245e-02, 3.16202007e-02,
          -2.26688217e-02, 6.78416295e-03, 1.21310297e-02,
          -2.10852884e-02, -1.64842382e-02, -5.35918772e-03,
          -5.39664626e-02, -6.22140215e-05, 1.07959472e-02,
          -1.25137903e-02, -2.11902689e-02, 8.02076887e-03,
          2.82470547e-02, 1.10730184e-02, 1.74301080e-02, 2.34324597e-02,
          3.31661664e-02, -2.88991054e-04, 5.54554304e-03,
          -3.53693254e-02, -1.29207596e-02, 2.07067374e-02,
          1.18261771e-02, 1.87757052e-02, 8.47963896e-03, 8.82688537e-03,
          -2.19625421e-03, -1.59924459e-02, 8.17807205e-03,
          1.25483358e-02, 1.89059938e-03, 9.22173075e-03, 1.70336608e-02,
          -1.88279767e-02, 7.98890460e-03, -5.40280379e-02,
          -2.77269930e-02, -5.64056523e-02, -1.24495733e-03,
          -1.25633674e-02, 2.39429604e-02, 1.56453811e-02,
          -9.44920443e-03, -4.30462882e-03, 2.47752443e-02,
          3.61615643e-02, -3.45799178e-02, -5.74649405e-03,
          1.42598096e-02, 1.36238439e-02, 1.71109829e-02, 1.08714076e-02,
          6.76028058e-03, 3.61313298e-02, -3.60060148e-02,
          -7.09054386e-03, -4.42759693e-02, 9.60928388e-03,
          1.09162666e-02, 8.87055788e-03, 5.18285111e-03, 1.07434466e-02,
          -2.12490628e-03, -2.79270317e-02, -7.59645626e-02,
          1.86521690e-02, 1.52522484e-02, 1.92729216e-02, 1.36073502e-02,
          2.07412336e-02, 1.36952121e-02, 5.58615569e-03,
          -4.09149043e-02, -2.92146895e-02, -1.45292114e-02,
          6.27583638e-03, 2.01730877e-02, 2.77450792e-02, 1.85900908e-02,
          1.27452677e-02, 7.47552468e-03, -1.92163419e-02,
          -7.22137745e-03, -2.47926190e-02, 6.84212008e-03,
          5.57844201e-03, 6.65396824e-03, -2.59356271e-03,
          -7.40677631e-03, -5.09104133e-03, -1.65645760e-02,
          -2.40334030e-02, -2.80826855e-02, -4.78003128e-03,
          1.99141651e-02, 1.05788680e-02, -5.96800062e-04,
          -2.53360672e-03, -1.65475830e-02, -3.50126512e-02,
          -1.01610497e-02, 1.89979095e-02, 5.58209652e-03,
          1.05675533e-02, 2.62912270e-02, 6.52701501e-03,
          -4.39169677e-03, -6.05711415e-02, -2.73040626e-02,
          -1.38577283e-03, 1.97242387e-02, 2.14305166e-02,
          3.90283763e-02, 3.75167280e-02, 1.64902247e-02,
          -7.51690473e-03, -3.16017144e-03, -2.61815768e-02,
          -2.01102961e-02, -4.10331674e-02, -1.67359710e-02,
          2.57942062e-02, 1.56997647e-02, -2.66975397e-03,
          -1.20537088e-03, 9.51185916e-03, -2.70328093e-02,
          -1.23866799e-03, -4.29361919e-03, 6.69502653e-04,
          6.38030376e-03, 1.52945733e-02, -6.87704794e-03,
          -3.38513823e-03, -3.85777056e-02, -3.50712910e-02,
          -2.67207772e-02, -1.27541721e-02, 1.86188184e-02,
          5.22842593e-02, 3.96132432e-02, 1.59885921e-02,
          -1.27618341e-03, 7.60520482e-03, -1.50130056e-02,
          -6.14713784e-03, -5.26323728e-03, -7.31163193e-04,
          2.23180391e-02, 2.65653711e-04, -6.27136044e-03,
          6.59066485e-03, 1.63927525e-02, -3.26454788e-02,
          3.94393131e-03, -3.58830206e-03, 6.63279276e-03,
          -9.12842224e-04, 6.83241244e-03, -5.71555085e-03,
          1.48265669e-02, 2.41922159e-02, 8.11595749e-03,
          -1.01988669e-02, -2.28016712e-02, 3.56789073e-03,
          -2.57425685e-03, -2.70737195e-03, -1.12633146e-02,
          1.95564386e-02, 2.06260383e-02, 1.09350672e-02, 7.31212599e-03,
          -2.10870598e-02, 4.45813593e-03, 4.59867436e-03,
          -1.64539199e-02, -8.74958094e-03, 2.32855193e-02,
          1.36874737e-02, 2.66124159e-02, -8.23518913e-03,
          -3.25704482e-03, 7.08927866e-03, 1.53362127e-02,
          -1.85178667e-02, -9.79877729e-03, 2.90962756e-02,
          6.31609745e-03, 9.44477227e-03, 8.80926964e-04,
          -1.18090389e-02, -1.33437794e-02, -9.03324410e-03,
          -2.06643716e-02, -2.36803442e-02, -1.27503658e-02,
          -9.42520797e-04, 1.17489509e-02, 1.95324067e-02,
          -1.19587779e-02, 1.25623221e-04, 1.32531428e-03,
          -2.44117454e-02, -2.74570938e-02, -1.03230458e-02,
          -7.85604026e-03, -4.43512667e-03, -2.51939185e-02,
          2.51211459e-03, -2.43832860e-02, 2.25493498e-03,
          -1.07219080e-02, -1.54922521e-02, 6.30542869e-03,
          -2.14198735e-02, -4.74753760e-05, 9.30777658e-03,
          1.28122084e-02, -8.61463323e-03, -2.78251432e-03,
          6.15619915e-03, -1.42344059e-02, -5.54596446e-03,
          -6.38090633e-03, -1.41083756e-02, 5.58475219e-03,
          -1.15902741e-02, -3.94511642e-03, 2.34839064e-03,
          -1.17923552e-02, -1.02111753e-02, -7.16776308e-03,
          -6.48455787e-03, -2.37445254e-02, -9.60125495e-03,
          1.95515715e-02, 1.13748154e-02, -8.37339647e-03,
          -2.57806573e-02, 2.00629071e-03, -4.44569346e-03,
          -2.03383658e-02, -1.46373743e-02, 4.26784065e-03,
          3.89496633e-03, 6.69739163e-03, 5.89428796e-03, 2.37736432e-03,
          -2.27806326e-02, -1.32206064e-02, -5.15181711e-03,
          -2.76312027e-02, -4.71675629e-03, 1.51109658e-02,
          3.69391940e-03, 9.18172766e-03, -1.52006634e-02,
          -1.69384181e-02, -6.91991113e-03, 8.93603452e-03,
          7.16452999e-03, -7.99351465e-03, 8.89722072e-03,
          6.45648642e-03, -1.12224314e-02, 6.35380624e-04,
          1.03568109e-02, 4.66193818e-03, 9.69608501e-03, 2.48288456e-03,
          -2.49742400e-02, -3.12531192e-04, -3.63701023e-03,
          6.98268553e-03, 2.06825528e-02, 2.48120073e-02, 1.54529493e-02,
          1.56791229e-02, -4.42254404e-03, -1.50936581e-02,
          1.13178408e-02, -1.75343268e-03, -2.21208174e-04,
          -1.66027285e-02, -1.50940400e-02, -1.52802572e-03,
          5.48168179e-03, -1.80500653e-02, -2.84108501e-02,
          9.06693470e-03, -2.27880571e-02, 3.45959514e-03,
          6.69084908e-03, 1.36374645e-02, -1.22999530e-02 ]
   decision_functions:
      -
         sv_count: 1
         rho: -2.6706603517032272e+00
         alpha: [ 1. ]
         index: [ 0 ]
