%YAML:1.0
my_svm: !!opencv-ml-svm
   svm_type: C_SVC
   kernel: { type:LINEAR }
   C: 400.
   term_criteria: { epsilon:2.2204460492503131e-16, iterations:100 }
   var_all: 3780
   var_count: 3780
   class_count: 2
   class_labels: !!opencv-matrix
      rows: 1
      cols: 2
      dt: i
      data: [ -1, 1 ]
   sv_total: 1
   support_vectors:
      - [ -4.16340716e-02, 2.93815508e-02, -1.22769484e-02,
          -7.52870888e-02, -5.44905849e-02, -3.07776984e-02,
          -1.60487629e-02, -5.78886196e-02, 5.82004478e-03,
          -6.09228853e-03, 2.57988758e-02, -5.21757677e-02,
          -4.43808250e-02, -1.37502328e-02, 7.45301172e-02,
          3.25807147e-02, -1.49619831e-02, -5.58148883e-03,
          -1.83713362e-02, 4.57696319e-02, -2.93817464e-02,
          -6.42252294e-03, 3.05972397e-02, -4.49448787e-02,
          -6.01899065e-02, -6.80533499e-02, -1.07985893e-02,
          4.24453095e-02, -8.60856622e-02, -1.32979915e-01,
          -1.88385986e-03, 6.26271963e-03, 4.96389531e-02,
          -2.77852989e-03, -4.28025192e-03, 3.03330161e-02,
          -3.05508506e-02, 4.08141874e-03, -7.26273358e-02,
          -7.70389801e-03, -1.51813193e-03, 4.09955792e-02,
          8.23124405e-03, -4.66715172e-02, -3.31915580e-02,
          2.41704807e-02, 5.55147864e-02, -4.26614657e-02,
          -2.99369581e-02, -4.07316275e-02, 1.24933468e-02,
          5.03296107e-02, 8.20821431e-03, -4.84577417e-02,
          -2.72734892e-02, -7.78165609e-02, -7.62709379e-02,
          -3.19884568e-02, -2.35892669e-03, 4.28189710e-02,
          1.08694145e-02, 2.76416796e-03, -4.74073328e-02,
          1.27814256e-03, -1.84039511e-02, -2.08837111e-02,
          -1.88218970e-02, 8.42052232e-03, -7.06766453e-03,
          1.87002327e-02, -1.72970537e-02, -7.83066899e-02,
          5.80778979e-02, 5.12852818e-02, -1.78054825e-03,
          -5.37066627e-03, -7.57694840e-02, -1.77532099e-02,
          3.99473347e-02, 1.88917555e-02, 4.78198938e-02, 8.83525684e-02,
          2.84828544e-02, -3.41171063e-02, 1.48506649e-02,
          -3.38155478e-02, -2.15296466e-02, 5.07035851e-02,
          -1.57290865e-02, 2.44126432e-02, -1.51174236e-02,
          4.47081625e-02, -1.27099352e-02, 1.09948302e-02,
          -4.80209589e-02, -1.08798305e-02, 3.62689956e-03,
          -2.07166318e-02, -4.11565565e-02, -2.57047731e-03,
          -3.78325954e-02, -1.55257896e-01, 7.06621632e-02,
          -4.29984042e-03, -4.08923952e-03, 1.70385689e-02,
          -3.21680866e-02, 3.91596146e-02, 6.48147762e-02,
          2.69980989e-02, -2.67634001e-02, 4.94052060e-02,
          -1.90195274e-02, 6.43527694e-03, 3.16372253e-02,
          -3.47638242e-02, -2.23961547e-02, -1.46937985e-02,
          2.90919859e-02, 1.18222861e-02, 6.32583201e-02,
          -1.50198187e-03, 3.67762521e-02, -1.38833728e-02,
          -2.52987090e-02, -9.94840078e-03, -4.42041345e-02,
          -3.81289260e-03, -8.38606060e-02, 4.17488590e-02,
          -4.59104478e-02, 2.44240593e-02, 1.09783630e-03,
          -1.89376790e-02, -4.30984758e-02, -6.07747436e-02,
          -5.69994487e-02, -1.13915512e-02, 4.21135388e-02,
          -1.29831322e-02, 2.76840795e-02, -5.08490205e-02,
          -6.47593588e-02, -2.88848169e-02, -1.45920450e-02,
          1.03375278e-02, 7.60721229e-03, 5.42814434e-02, 2.78083514e-02,
          7.93200452e-03, -2.74804365e-02, 1.46362549e-02,
          9.18075629e-03, 2.02839933e-02, 1.17986714e-02,
          -1.70864426e-02, 5.09248227e-02, 3.81833203e-02,
          -1.95787977e-02, -2.92721409e-02, 4.04943852e-03,
          -1.35308560e-02, 3.01003759e-03, -3.41762742e-03,
          -3.86212543e-02, 5.75326160e-02, 2.81107407e-02,
          -1.38758002e-02, -2.95427367e-02, -3.50215137e-02,
          -6.12127408e-02, 2.50998065e-02, -1.43895904e-02,
          -7.56643936e-02, 1.11784134e-02, -3.41676511e-02,
          -1.70395728e-02, -4.76155542e-02, 1.61033459e-02,
          4.74639200e-02, -4.75815358e-03, 2.73908935e-02,
          -1.55511489e-02, 2.57496666e-02, 6.51355321e-03,
          -1.52805448e-03, -3.45489406e-03, 1.96669549e-02,
          -2.78821811e-02, 1.39029352e-02, 2.64772903e-02,
          -3.11692674e-02, -3.22808437e-02, 4.51658778e-02,
          2.75601465e-02, 2.62882784e-02, 1.42507730e-02, 2.40293015e-02,
          -2.72988435e-03, -1.25386715e-02, -4.45836410e-02,
          -1.68005843e-02, -1.08202826e-02, -1.29123367e-02,
          -2.37259525e-03, 1.32154375e-02, 1.95367169e-03,
          -6.19564094e-02, 2.83076745e-02, -3.79933487e-03,
          -2.99467035e-02, 1.30688690e-03, 1.92227296e-03,
          -3.41711305e-02, -5.55162914e-02, -8.72073025e-02,
          3.58927362e-02, 4.92377728e-02, 1.73889814e-04,
          -9.52015352e-03, 4.70152460e-02, 7.53761008e-02,
          6.05129898e-02, 1.65611804e-02, -1.91440228e-02,
          -3.69387381e-02, 4.23031598e-02, 2.77955309e-02,
          2.29904335e-02, 2.32837200e-02, 2.66600028e-02, 3.71988229e-02,
          -8.76501668e-03, -8.92193913e-02, -5.76412380e-02,
          7.43577033e-02, 4.88267764e-02, 4.29578545e-03,
          -6.07497786e-05, 1.21115120e-02, -1.58638209e-02,
          -3.28299589e-02, -4.80366759e-02, -2.99332272e-02,
          5.21390215e-02, -1.08707258e-02, 8.98110773e-03,
          -3.96573218e-03, -3.54476757e-02, -1.70749109e-02,
          -5.98858818e-02, -6.00235127e-02, -7.50830397e-02,
          -4.60551912e-03, 4.81775701e-02, 7.96041116e-02,
          1.58066917e-02, -4.73148329e-03, 1.16403261e-02,
          1.96515583e-02, -7.72587163e-03, -2.85505671e-02,
          -4.21625227e-02, 1.71043426e-02, 2.72983145e-02,
          -2.42095105e-02, 2.75613032e-02, -2.90150717e-02,
          5.58393821e-02, 6.53433278e-02, -1.20947734e-02,
          1.84595641e-02, 8.16502608e-03, 6.25312328e-02,
          -1.40218148e-02, -2.15274505e-02, -3.70409526e-02,
          -4.62266356e-02, -2.67868564e-02, -3.98895368e-02,
          -1.52893690e-02, 1.10014584e-02, 7.84434304e-02,
          -2.37419344e-02, 3.04871909e-02, -4.70935814e-02,
          6.79329457e-03, 1.79219861e-02, -3.04829273e-02,
          1.11004142e-02, 3.77693325e-02, 5.48279285e-02,
          -1.72472186e-02, 1.60817392e-02, -1.76254679e-02,
          2.03732997e-02, 8.05428401e-02, -5.69655094e-03,
          3.81210595e-02, 4.35763635e-02, 4.95485514e-02,
          -2.22807797e-03, -1.24534778e-02, -2.08561327e-02,
          -8.28485563e-03, 3.46962996e-02, -5.30885793e-02,
          9.26063862e-03, -3.42885703e-02, 2.68111601e-02,
          -1.37765985e-02, 3.02972216e-02, -2.80621052e-02,
          4.07801662e-03, -1.09947231e-02, -3.08134817e-02,
          -5.08162081e-02, -4.73454781e-03, 7.37561146e-03,
          -3.92548665e-02, 2.66664289e-02, 4.07424159e-02,
          1.30942399e-02, -1.50330067e-02, 1.28696235e-02,
          3.85165438e-02, 3.76943797e-02, 4.74538319e-02, 3.08579560e-02,
          -1.75623465e-02, -2.35030167e-02, -1.36821410e-02,
          2.76310798e-02, 1.81157701e-02, 5.98887866e-03, 3.59694734e-02,
          7.34279752e-02, 9.00205970e-02, -2.29341853e-02,
          -2.77611464e-02, -2.41939351e-02, 8.37301370e-03,
          -1.28893703e-02, 1.22133987e-02, 2.91787796e-02,
          -1.71798170e-02, -2.08670981e-02, 4.27432731e-02,
          1.12961017e-04, 1.57663692e-02, -5.31053916e-03,
          -2.94901151e-02, -3.62489093e-03, -1.30642839e-02,
          2.99253296e-02, 9.50524434e-02, 3.45245786e-02,
          -3.96685526e-02, -2.90352926e-02, -6.56861812e-02,
          5.57950139e-02, 2.83504725e-02, 5.30995205e-02, 1.51377553e-02,
          6.77185953e-02, -1.52815552e-03, 1.74631719e-02,
          -6.05517952e-03, 1.61913093e-02, 1.59711018e-02,
          -1.94703694e-03, 2.22187713e-02, 9.61535331e-03,
          6.11866042e-02, 5.68553284e-02, 8.48756731e-02,
          -1.08465767e-02, 3.56649123e-02, 2.82958113e-02,
          -3.57811972e-02, 2.34377440e-02, -2.94371378e-02,
          2.70679779e-02, -2.47781891e-02, 1.37102567e-02,
          1.57288276e-02, 6.02244912e-03, 2.61657890e-02,
          -4.27390672e-02, 4.37602736e-02, -8.87491927e-03,
          -5.91137633e-02, 4.52682236e-03, -2.29065716e-02,
          9.66163278e-02, 1.05973355e-01, -5.42652197e-02,
          -3.25307669e-03, 3.72315161e-02, 8.12525377e-02,
          6.90713078e-02, 2.47621629e-02, 6.29715100e-02, 2.28168396e-03,
          1.46614551e-03, -4.66650389e-02, -1.83284134e-02,
          5.13132736e-02, 3.14212553e-02, 3.02190892e-02,
          -1.91238876e-02, 4.86167967e-02, 1.24926120e-02,
          -1.42695345e-02, 1.90382148e-03, -2.65492257e-02,
          5.32025844e-02, 3.92727181e-02, -1.93907805e-02,
          9.74671729e-03, 2.41195709e-02, 5.22917621e-02, 6.87316433e-02,
          -1.01774791e-02, -4.44431789e-02, 1.84606705e-02,
          -2.16674339e-03, 7.41050579e-03, 5.63033018e-03,
          1.29866302e-02, 4.72472832e-02, 4.64123255e-03,
          -3.26519087e-02, -1.85374282e-02, 5.26185185e-02,
          -1.68184433e-02, 1.17791528e-02, 5.51755168e-02,
          5.80515228e-02, -3.73506290e-03, -3.31087559e-02,
          -1.41984457e-02, -2.53493409e-03, 2.96245217e-02,
          1.01946779e-02, 5.33759641e-03, 6.21170364e-02, 7.43322494e-03,
          -4.02334966e-02, -2.29816567e-02, -4.01268490e-02,
          -2.96404399e-02, 6.14796765e-02, -8.49622395e-03,
          2.03784313e-02, 1.62802804e-02, 2.63732392e-02, 1.56296194e-02,
          -8.27983022e-03, 2.22898461e-03, -5.64399932e-04,
          2.73532271e-02, -7.10084811e-02, -3.50275077e-03,
          -9.89552867e-03, -4.35174257e-02, -4.83117141e-02,
          -2.48283185e-02, 2.15516109e-02, -1.40970964e-02,
          -2.43490729e-02, -1.05375629e-02, -2.34843139e-02,
          5.86997010e-02, 8.85272457e-04, -9.86123644e-03,
          2.33263299e-02, 4.48900685e-02, -4.62027080e-02,
          -4.95011248e-02, 1.38772232e-02, -8.91883112e-03,
          3.27467434e-02, -5.07755913e-02, -4.14463431e-02,
          5.53104058e-02, 2.23852415e-02, -1.15386220e-02,
          -1.98589284e-02, -6.98473305e-02, -9.09316167e-03,
          2.30339672e-02, 1.18079633e-02, 1.00122849e-02, 4.05965671e-02,
          4.54050191e-02, -3.04686222e-02, -4.10825312e-02,
          -4.64404337e-02, -1.40254358e-02, 4.45544161e-02,
          -2.79365368e-02, 1.82530656e-02, 4.21298742e-02,
          3.65371034e-02, -9.20674205e-03, -1.93059128e-02,
          4.17010821e-02, -7.92818330e-03, 4.15393943e-03,
          -2.05849856e-02, -1.12218072e-03, 2.54967157e-02,
          -7.57950218e-03, 7.19607994e-03, 5.91376908e-02,
          3.52471098e-02, -5.65317012e-02, -4.44863997e-02,
          3.87662984e-02, 2.52093505e-02, 1.90058909e-02, 2.52708141e-02,
          -3.80922221e-02, -1.01109473e-02, -5.00668325e-02,
          -4.37783748e-02, -1.66100152e-02, -4.53781895e-03,
          3.31424363e-02, 2.83731800e-02, -9.21197422e-03,
          2.42026392e-02, 6.63805678e-02, -4.93888445e-02,
          -7.24019036e-02, -1.17265303e-02, 8.82991925e-02,
          1.42029570e-02, 3.71964648e-02, -8.48812051e-03,
          4.64068614e-02, 3.00852023e-02, 6.31966442e-02, 3.32381427e-02,
          -5.00503518e-02, -6.37961254e-02, -4.63322587e-02,
          -3.52134481e-02, 2.42047198e-02, -7.16784745e-02,
          -7.42541403e-02, 3.65923462e-03, 3.52811590e-02,
          -9.33052041e-03, -3.75063391e-03, 2.98946984e-02,
          4.63480204e-02, -5.91586046e-02, -2.92251855e-02,
          1.82413664e-02, 5.94879165e-02, 5.22544943e-02,
          -3.19734700e-02, -7.25443242e-03, -7.33843888e-04,
          -5.17873168e-02, -8.07313249e-03, -4.13406193e-02,
          -1.99497752e-02, 1.65089872e-02, 1.47829130e-02,
          -4.61409800e-02, 1.26947807e-02, 2.65716985e-02,
          3.25792134e-02, -4.58870158e-02, -4.43571135e-02,
          -4.29291315e-02, 1.14568667e-02, 7.52118556e-03,
          2.01142691e-02, 9.56111308e-03, 3.23874541e-02,
          -1.32931620e-02, -3.93901393e-02, -6.58924971e-03,
          -1.67111810e-02, 1.88356880e-02, -3.70618403e-02,
          -1.42875761e-02, 5.40464185e-03, 1.02095157e-02,
          -4.18672040e-02, 6.78757671e-03, 2.60182638e-02,
          4.24213381e-03, 2.58093551e-02, -2.01567598e-02,
          -3.40055563e-02, -5.07032014e-02, 8.97511467e-03,
          1.95063744e-02, -3.69432196e-02, -1.01461625e-02,
          1.12508619e-02, 1.14500336e-01, 2.97004208e-02,
          -2.21956186e-02, -6.75430074e-02, -4.75189425e-02,
          -5.54616526e-02, 6.45613647e-04, -6.82111084e-03,
          -4.40671444e-02, 5.24663329e-02, -1.90345235e-02,
          -1.31512685e-02, 7.38501921e-03, 5.39260451e-03,
          -4.87040430e-02, 5.25523489e-03, -1.94149688e-02,
          -4.75290380e-02, 8.09007734e-02, 2.46513970e-02,
          -1.46255065e-02, 3.09834685e-02, 1.11224158e-02,
          -2.24028784e-03, -1.83827952e-02, -3.99158187e-02,
          -5.65370023e-02, 6.66295066e-02, -4.20830883e-02,
          1.37005188e-02, -8.72659869e-03, -2.47033406e-03,
          -2.15373188e-02, -6.89946115e-02, -3.25653069e-02,
          -6.39117211e-02, 6.67378232e-02, -4.73975996e-03,
          3.56799848e-02, 1.26827741e-02, 3.52314264e-02,
          -3.74951400e-02, 1.18809296e-02, 2.78902575e-02,
          -3.55072021e-02, 2.18213592e-02, -3.05733941e-02,
          9.50943399e-03, 7.78025761e-03, 2.02016030e-02, 6.45123329e-03,
          1.73137356e-02, 1.63115729e-02, -4.64189649e-02,
          2.52121575e-02, -7.74971582e-03, 8.35796632e-03,
          2.11352427e-02, 2.44937688e-02, 3.90344555e-03,
          -8.03119317e-02, 4.00558375e-02, -2.09487509e-03,
          6.50616065e-02, 8.20247736e-03, 1.42710060e-02,
          -3.79578061e-02, 1.73159074e-02, 1.76761125e-04,
          -1.90034769e-02, -3.34884413e-02, -5.28032482e-02,
          2.40153242e-02, 3.67162600e-02, -1.24450289e-02,
          -1.73351597e-02, -4.36636135e-02, -2.55819485e-02,
          5.41949756e-02, 1.91440210e-02, -5.43608777e-02,
          4.04090062e-02, 1.15553755e-02, 4.89570526e-03,
          -3.27744931e-02, -1.30589241e-02, 1.90046784e-02,
          4.67495620e-02, -4.31888551e-02, -4.24269810e-02,
          -6.91034412e-03, 7.55708897e-03, -1.86481164e-03,
          -2.53710821e-02, 3.82031780e-03, 3.97532582e-02,
          7.41854217e-03, -6.84268549e-02, -6.78390265e-02,
          5.01676314e-02, 2.80581899e-02, 2.07220949e-02,
          -4.64040926e-03, -3.48581336e-02, -1.80459605e-03,
          2.87408326e-02, -4.87729162e-02, -9.70997736e-02,
          -2.39181751e-03, 1.03087565e-02, 3.63914706e-02,
          -2.73554940e-02, 7.26229465e-03, 5.58721907e-02,
          1.84569415e-02, 7.75582017e-03, -1.19176442e-02,
          -4.36840951e-02, -2.96972934e-02, -3.56716029e-02,
          -5.29832169e-02, 1.64259654e-02, 4.11992446e-02,
          1.93970483e-02, 4.06743474e-02, 4.01123799e-02,
          -1.10418424e-02, 5.02278609e-03, -1.08829606e-02,
          -5.73917851e-02, -1.66423675e-02, 8.67564417e-03,
          8.54565995e-04, -3.86821814e-02, -7.81362504e-02,
          -4.47432250e-02, -3.27077657e-02, 9.97576676e-03,
          -3.04784253e-02, 7.18416763e-04, 7.57643059e-02,
          -1.50456643e-02, 3.05153280e-02, -3.27055380e-02,
          2.28780657e-02, 1.87144317e-02, -4.25425842e-02,
          -1.13689318e-01, 2.79124770e-02, 4.21061702e-02,
          -4.30929586e-02, 4.44262065e-02, 5.62593602e-02,
          5.92487566e-02, 3.14839110e-02, 2.28165253e-03,
          -9.41412151e-02, -2.21750271e-02, -3.43600921e-02,
          -3.26196738e-02, 9.22198407e-03, 2.15226691e-02,
          3.81671004e-02, 4.01914679e-02, 2.48729214e-02,
          -6.78860247e-02, -3.07048410e-02, 2.04568226e-02,
          -4.42432389e-02, 3.72176133e-02, 7.64138903e-03,
          2.14818567e-02, 2.06705891e-02, 1.48837352e-02,
          -5.63738570e-02, -2.65647136e-02, 1.10325953e-02,
          -1.03891961e-01, -4.47541066e-02, -7.88130984e-03,
          4.21853811e-02, 1.01488486e-01, 4.88128029e-02,
          -3.77250314e-02, -2.35863235e-02, -1.52335232e-02,
          3.52981128e-02, 4.83456478e-02, -1.32849002e-02,
          5.09526730e-02, 3.73904370e-02, 2.26632482e-03,
          -4.13731821e-02, -4.10797708e-02, 6.24935292e-02,
          3.50317289e-03, 3.89039777e-02, -6.09971955e-03,
          -1.28680561e-02, -7.14921020e-03, -1.41978981e-02,
          -5.69095835e-02, 3.36868949e-02, 4.58435453e-02,
          -2.65438687e-02, -7.18712946e-03, 2.17252714e-03,
          2.24787481e-02, 7.42991492e-02, 3.92442346e-02, 3.06705553e-02,
          2.21031830e-02, 6.43174872e-02, -2.78728940e-02,
          -5.80871403e-02, -4.13073041e-03, -3.26891243e-02,
          4.23123464e-02, -2.59999949e-02, -2.73649246e-02,
          -9.57862381e-03, 4.89682257e-02, -3.28188427e-02,
          3.93390432e-02, 2.01052390e-02, -2.35694312e-02,
          4.10670266e-02, 1.40739148e-02, -1.55952414e-02,
          3.31096239e-02, 3.71782407e-02, -1.69803351e-02,
          6.61431206e-03, 1.77755803e-02, -2.08909102e-02,
          4.89063486e-02, 2.07704608e-03, 6.96538901e-03, 8.50244984e-03,
          1.09248208e-02, -2.37052757e-02, -1.83961482e-03,
          7.37988353e-02, -4.09376323e-02, -5.03743859e-03,
          -1.89578105e-02, -6.55447990e-02, 2.50357110e-03,
          1.51487328e-02, 4.50151647e-03, -1.42546808e-02,
          4.83672470e-02, -2.20034700e-02, 4.73340303e-02,
          -1.60911027e-02, -1.57694910e-02, 3.96825150e-02,
          1.31304041e-02, -1.94681082e-02, 1.66025870e-02,
          4.18852866e-02, 1.34598399e-02, -1.32212928e-02,
          7.55363936e-03, -4.23023067e-02, 4.69174795e-02,
          -1.57336947e-02, -2.46036574e-02, 2.17002444e-02,
          1.86660921e-03, 4.64519858e-02, 3.57300676e-02,
          -3.21415416e-03, -4.32178341e-02, 3.41105871e-02,
          -2.63019651e-02, 1.14199361e-02, 3.11331209e-02,
          6.99475547e-03, 4.50419867e-03, -1.52450544e-03,
          2.85303928e-02, -1.94187704e-02, 1.88799668e-02,
          1.78138819e-02, -1.91081583e-03, 6.44238247e-03,
          -3.93605009e-02, 3.10774613e-02, 2.39535561e-03,
          -3.65937687e-02, -7.14128688e-02, 1.48848593e-02,
          -4.51002941e-02, 3.62495370e-02, 2.67607607e-02,
          1.84905138e-02, -2.77744569e-02, -5.46419108e-03,
          -1.51997590e-02, -1.01980520e-02, 3.85840870e-02,
          2.94314418e-02, 3.95985618e-02, 6.61607087e-03, 8.18478540e-02,
          3.69783863e-02, -3.89111079e-02, 1.81460311e-03,
          -3.77798378e-02, 9.62538049e-02, 4.71803173e-02,
          2.26101503e-02, 6.09046929e-02, 1.74716208e-02, 1.12380262e-03,
          2.01416537e-02, -3.10058687e-02, -4.92125226e-04,
          6.25437349e-02, 2.70606000e-02, 1.73511282e-02, 7.71481618e-02,
          7.26674050e-02, 8.61657485e-02, 5.51828705e-02,
          -4.96079102e-02, 9.41356702e-04, 3.49196196e-02,
          3.42840329e-02, 2.53931200e-03, -1.30439457e-02,
          6.04413077e-02, 3.55118178e-02, 1.68226939e-02, 9.64609813e-03,
          -3.53953429e-02, 5.45731112e-02, 5.24292551e-02,
          -4.68466058e-02, -5.12076095e-02, 2.52112257e-03,
          2.39679171e-03, 3.96666713e-02, 4.72595058e-02, 6.12630602e-03,
          5.90082519e-02, 5.24444878e-03, -3.75793315e-02,
          6.13874197e-03, 4.59687561e-02, 6.44862950e-02, 6.85588717e-02,
          -6.22116290e-02, -8.82392451e-02, -8.52171425e-03,
          1.88733935e-02, -3.11039537e-02, -7.16055930e-02,
          -2.66795438e-02, -4.61157318e-03, 6.46348298e-02,
          1.31794112e-02, -3.38353403e-02, -2.67301407e-02,
          -2.97162812e-02, -5.72857335e-02, 1.91235085e-04,
          5.20729534e-02, 1.72229651e-02, 1.60104204e-02, 5.92751987e-03,
          2.89150681e-02, 3.23386155e-02, -5.41687682e-02,
          -3.06069572e-02, 6.66127773e-03, 3.80402766e-02,
          -1.06005222e-02, -3.90303619e-02, -4.80548479e-02,
          -1.41758416e-02, -2.42675394e-02, -3.88366506e-02,
          -2.94105690e-02, -1.78863183e-02, 3.79447564e-02,
          1.66473035e-02, -2.30808295e-02, -5.51117547e-02,
          -5.78801846e-03, 2.83456203e-02, -3.34466547e-02,
          -6.45728130e-03, -1.91517975e-02, 1.04027428e-02,
          -2.18791310e-02, 1.93279479e-02, -5.10568097e-02,
          -1.50224529e-02, 4.75583114e-02, -2.74502654e-02,
          1.63902657e-03, -1.39395930e-02, 4.75221965e-03,
          -3.51428688e-02, -1.76490396e-02, -1.80621929e-02,
          -2.26079915e-02, -8.48758407e-03, 1.25278719e-02,
          3.18714138e-03, -1.28404573e-02, 1.89288799e-02,
          -1.03829494e-02, -1.94016453e-02, 2.12661419e-02,
          9.20127568e-05, 4.99194255e-03, -1.06288949e-02,
          1.54009955e-02, -3.69919240e-02, -5.14130443e-02,
          -9.45109427e-02, 6.15636595e-02, 3.59235704e-02,
          1.72911454e-02, 4.91413176e-02, 1.59275681e-02,
          -2.53343093e-03, 1.36634102e-03, 3.28968768e-03,
          -1.56868715e-02, 5.44361174e-02, 9.53918770e-02,
          7.78208375e-02, 2.70739365e-02, -2.89548542e-02,
          -2.82937195e-02, -4.57739420e-02, 6.20066822e-02,
          -2.91470368e-03, -2.63268091e-02, -3.30526568e-02,
          -4.54763271e-04, 3.86318145e-03, -2.10345094e-03,
          -5.10915443e-02, -7.49138743e-03, 5.62385544e-02,
          -1.36158643e-02, -5.94245866e-02, 8.74620490e-03,
          9.67600010e-03, -3.79641689e-02, 1.18619576e-02,
          -1.78104192e-02, -1.82779096e-02, 5.14414720e-02,
          1.53401960e-02, 6.19014492e-03, -5.18774241e-03,
          3.39195058e-02, 1.57321673e-02, 3.94036295e-03,
          -2.10951343e-02, -1.52524980e-02, 3.07153668e-02,
          9.97756608e-03, -4.19465937e-02, 2.85298880e-02,
          -1.07440744e-02, -3.11129782e-02, -9.78055876e-03,
          -1.55658936e-02, 8.02505482e-03, 2.55422071e-02,
          3.61476578e-02, 1.64487073e-03, 1.38783939e-02, 3.35583203e-02,
          -1.56383421e-02, -6.83889240e-02, 5.71627319e-02,
          5.28209843e-02, 1.91829670e-02, 6.22627372e-03,
          -4.68038069e-03, 1.67792086e-02, -6.19502226e-03,
          -4.37968597e-02, 3.41683738e-02, 4.27171476e-02,
          6.80373574e-04, 6.38187081e-02, -1.57910176e-02,
          -6.80293366e-02, 1.43059054e-02, 2.30478104e-02,
          3.91127169e-02, -6.91382438e-02, 2.70648357e-02,
          -1.22989779e-02, -1.37646114e-02, -3.57180759e-02,
          -7.22853541e-02, 1.54569950e-02, -7.31249666e-03,
          -1.31302737e-02, -3.72518115e-02, 4.91768010e-02,
          4.89292368e-02, -1.28584253e-02, 1.45971822e-02,
          -3.40869613e-02, -2.94061238e-03, -3.71230356e-02,
          -2.84517575e-02, -1.61087373e-04, -4.51765284e-02,
          5.99063141e-03, 1.22800749e-02, 9.60834697e-02, 2.96088159e-02,
          -1.54953473e-03, -6.56260923e-02, 7.70889316e-03,
          -6.30271807e-02, -3.54917683e-02, -1.94884744e-02,
          -3.96043397e-02, -4.34608944e-02, -7.10466430e-02,
          9.45201050e-03, -1.78351607e-02, -1.39598846e-02,
          -4.60734740e-02, -5.22308908e-02, -6.76085416e-04,
          -1.54664433e-02, -2.73960475e-02, -5.79563007e-02,
          -1.61092430e-02, -2.23281691e-04, -1.23025319e-02,
          -5.19448370e-02, 3.46509181e-03, 3.47134471e-02,
          -5.24944859e-03, 4.46618907e-03, -4.29710783e-02,
          -1.11991456e-02, -4.71346313e-03, 1.68474223e-02,
          -3.95870544e-02, -1.10234646e-02, 1.91756664e-03,
          8.63305200e-03, 2.39206851e-02, -3.03537566e-02,
          3.31335329e-02, 1.62128545e-02, 4.35242504e-02,
          -3.00829988e-02, -2.12464873e-02, 5.63479848e-02,
          1.95882842e-02, -3.17033231e-02, -9.13039297e-02,
          -3.24693173e-02, 1.14563107e-02, 4.98441933e-03,
          -1.26274349e-02, -4.84159812e-02, 1.67563572e-04,
          -3.72908004e-02, 4.24522767e-03, -5.01057692e-02,
          -4.99387272e-02, -1.95777956e-02, 4.44378646e-04,
          -2.86441427e-02, -4.46918234e-02, -1.33846104e-02,
          8.51967931e-03, 5.89449666e-02, 4.67455648e-02, 2.60420125e-02,
          -2.07327548e-02, 4.57481369e-02, -9.82321147e-03,
          -1.56077435e-02, -5.98010048e-03, 3.38023342e-02,
          6.28960654e-02, 7.46761113e-02, 2.00851988e-02,
          -6.88244775e-02, -4.70270589e-02, 4.64881444e-03,
          -6.36598617e-02, -5.14906412e-03, -3.16470340e-02,
          -4.83195158e-03, -2.19056662e-02, 9.14668012e-03,
          -1.49812177e-02, -1.58862607e-03, -2.89225318e-02,
          -7.99214002e-03, 1.81200653e-02, 1.82352290e-02,
          9.77123901e-03, -3.57221067e-02, 2.17375886e-02,
          -1.25570204e-02, 5.62166609e-03, -2.67959386e-02,
          -1.68395285e-02, -2.42955796e-02, -3.15280398e-03,
          1.24001605e-02, 1.97975170e-02, 4.14409414e-02,
          -2.43450552e-02, -3.31971012e-02, -3.63480859e-02,
          -1.24774938e-02, 8.11643526e-03, -4.72869501e-02,
          -3.77041288e-02, 1.99781228e-02, 6.92872331e-02,
          -9.27788764e-03, -8.29276536e-03, 1.16819255e-02,
          -4.87991981e-02, 2.42516045e-02, -9.29685589e-03,
          -3.07175629e-02, -2.26827506e-02, -5.34852035e-03,
          -7.17749773e-03, -4.12825197e-02, -7.75598958e-02,
          6.22839725e-04, 1.58369187e-02, 3.22448346e-03,
          -1.75051019e-02, -5.29396906e-03, 3.71588543e-02,
          1.62185095e-02, -4.58814763e-02, -3.44962925e-02,
          6.92166528e-03, -3.87027604e-03, -1.01567786e-02,
          -2.13758554e-02, 5.52187162e-03, 1.33755039e-02,
          -5.91182522e-02, 2.06108131e-02, 5.74098192e-02,
          -1.85537990e-02, 1.62981730e-02, -4.80446517e-02,
          3.97897437e-02, -6.57273224e-04, -3.87569554e-02,
          -5.99870570e-02, 4.26070467e-02, -9.28580109e-03,
          2.33325586e-02, 9.50008724e-03, -1.81963649e-02,
          6.48668129e-03, 1.32954363e-02, 4.68409387e-04,
          -3.76635268e-02, -3.40517201e-02, -1.55721670e-02,
          1.79038607e-02, -1.81367919e-02, -3.61894779e-02,
          -2.33391076e-02, 2.08546016e-02, 3.76219600e-02,
          -2.83779129e-02, 3.01382653e-02, 1.38794286e-02,
          -2.89242212e-02, 4.17810753e-02, -9.53949988e-03,
          2.29010954e-02, 1.98158696e-02, 1.91993341e-02,
          -5.78156821e-02, 1.32368403e-02, 1.40467109e-02,
          -3.30134481e-02, 1.45574389e-02, -5.24615287e-04,
          -1.49976071e-02, 3.27381492e-02, 3.92942354e-02,
          -2.37591416e-02, 2.43228246e-02, -6.44897344e-03,
          -4.56813127e-02, 1.44637991e-02, -6.21118350e-03,
          -6.63170516e-02, 1.40252998e-02, 3.85346077e-02,
          2.34270897e-02, 2.48666462e-02, -2.49302126e-02,
          -4.97235693e-02, 2.36499533e-02, 2.69056484e-02,
          -5.27009107e-02, 1.41540766e-02, 3.55077977e-03,
          -3.29321399e-02, 3.09681837e-02, -3.69697325e-02,
          -5.32269701e-02, 6.92109764e-03, 1.96688753e-02,
          1.47769647e-03, 2.41335966e-02, 3.39203142e-02, 2.47055907e-02,
          4.22299206e-02, -4.14874824e-03, -3.40554938e-02,
          -1.43237477e-02, 2.97344942e-02, -3.01410928e-02,
          3.05142440e-02, 3.12404074e-02, -8.88571516e-03,
          -2.61286404e-02, 9.85494442e-03, -2.40732338e-02,
          1.54525647e-02, 8.02661031e-02, -3.26218121e-02,
          -4.05004201e-03, -3.01284785e-03, 1.70378517e-02,
          4.42973338e-02, -3.29458416e-02, -3.14017795e-02,
          -2.22564545e-02, 1.09698046e-02, -2.16539782e-02,
          1.27329528e-02, 2.34520137e-02, -4.62055020e-03,
          1.86383575e-02, 4.19297582e-03, -6.77938759e-02,
          -1.15547087e-02, 2.95786820e-02, -6.09402806e-02,
          -7.52804847e-03, 4.03326824e-02, -6.35885075e-03,
          1.09703597e-02, 1.53696621e-02, 2.99915601e-03, 3.46108228e-02,
          -5.99747465e-04, -1.80683415e-02, -1.57265272e-02,
          4.33363616e-02, -4.72696312e-03, 3.31305452e-02,
          2.43069548e-02, -5.90188466e-02, -6.47082180e-03,
          1.48233222e-02, 1.03038950e-02, 4.09804881e-02, 6.21447749e-02,
          2.33738814e-02, 3.48611623e-02, -2.43595559e-02,
          -2.90948115e-02, 5.79468645e-02, 2.63071954e-02,
          4.14797403e-02, 6.95577115e-02, 4.65548150e-02, 2.09830515e-02,
          -4.54976223e-03, 2.61330558e-03, 3.65139637e-03,
          2.91231275e-02, -2.54854094e-02, -8.31320230e-03,
          -1.03797847e-02, 4.74358387e-02, -9.52253677e-03,
          1.03918614e-03, 4.38730046e-03, -4.69062887e-02,
          -1.16535369e-02, -4.65300418e-02, -1.17914556e-02,
          3.83150112e-03, 1.23060895e-02, 5.85351773e-02, 3.63295637e-02,
          -3.78955305e-02, -1.80936921e-02, 1.42792016e-02,
          8.79584718e-03, 6.83875848e-03, -1.79170072e-02,
          3.09581496e-02, -4.67657447e-02, -1.12690516e-02,
          -5.79693951e-02, -3.84156592e-02, 5.96731086e-04,
          2.03783624e-03, 1.00514777e-02, -7.67839141e-03,
          -2.18943954e-02, 5.45436032e-02, 5.73383383e-02,
          -3.69667411e-02, -3.48983221e-02, 1.01344390e-02,
          -3.18684876e-02, -5.84963821e-02, 1.28942523e-02,
          -2.05503907e-02, 5.85097587e-03, 6.08052053e-02,
          5.12229465e-02, -1.13959452e-02, 2.20976025e-02,
          -1.21558309e-02, -8.04498559e-04, -5.11407964e-02,
          -5.51336333e-02, -2.25062612e-02, 1.37654124e-02,
          2.54083052e-02, 1.21022081e-02, 2.57180468e-03,
          -5.09947119e-03, 2.20421571e-02, 8.74016061e-03,
          -4.34210524e-02, 7.94523731e-02, 1.00859657e-01,
          7.10952431e-02, -2.59509915e-03, 3.38932648e-02,
          1.12487702e-02, 1.72916509e-03, -1.74444932e-02,
          3.55436616e-02, 6.99290112e-02, 6.18229248e-02, 4.47457843e-02,
          -2.06248146e-02, -1.01983873e-02, -1.17445469e-03,
          2.43665092e-02, 8.95416643e-03, -1.95400398e-02,
          -6.59705177e-02, 4.32090601e-03, 3.39416414e-02,
          -1.55413561e-02, -7.10111409e-02, -6.11011125e-02,
          -1.72394607e-02, 8.93332884e-02, 7.28277043e-02,
          4.44905087e-03, 2.09804787e-03, 2.34716088e-02, 1.72162186e-02,
          3.15103158e-02, -5.21133794e-03, -2.81206314e-02,
          -5.68292476e-03, 5.80447800e-02, 6.16536010e-04,
          2.45807450e-02, -8.16531945e-03, -2.14367695e-02,
          -4.52216566e-02, -4.04511131e-02, 4.24858406e-02,
          4.23334353e-02, 4.83320914e-02, 2.61549205e-02, 6.23712279e-02,
          -6.34434596e-02, -4.87344479e-03, -4.84546944e-02,
          2.44688559e-02, -1.67019181e-02, -2.74201222e-02,
          -1.69414319e-02, 6.49700547e-03, 3.99150066e-02,
          5.56285195e-02, -1.41529227e-02, -4.45501367e-03,
          3.83593254e-02, -2.87431758e-02, -8.70808028e-04,
          -3.46341357e-02, -2.71121077e-02, 1.03869382e-02,
          -2.50448473e-03, -1.58937238e-02, -1.28087578e-02,
          2.47699451e-02, 2.11204384e-02, -3.98579501e-02,
          2.61942986e-02, 2.01155711e-02, 8.93330127e-02,
          -4.08250205e-02, -1.73848309e-02, 5.19639440e-02,
          8.01219568e-02, -9.99662373e-03, 1.24430228e-02,
          -3.27446945e-02, -2.27901042e-02, -2.49108616e-02,
          -8.89460929e-03, 3.47723477e-02, 2.89645512e-02,
          4.74931672e-02, -6.30695596e-02, -5.96064376e-03,
          3.22853178e-02, -4.46553575e-03, 2.12505534e-02,
          5.27769998e-02, 2.29326840e-02, 4.28462438e-02, 5.68621568e-02,
          4.25324310e-03, -2.11388897e-02, 4.28413264e-02,
          6.81101978e-02, 4.18813415e-02, 2.98969895e-02, 2.53057834e-02,
          6.35880604e-02, 1.03532106e-01, -2.66850796e-02,
          1.00963581e-02, -4.27354202e-02, -6.50542527e-02,
          -3.78859267e-02, 6.16381504e-03, 4.17984873e-02,
          1.69237964e-02, 6.86905310e-02, 6.07788097e-03,
          -2.88018156e-02, -6.67174309e-02, -5.70104318e-03,
          3.18616554e-02, -3.75183555e-03, -9.37747862e-03,
          9.45747178e-03, 6.88103202e-04, -9.24391020e-03,
          2.90234629e-02, 2.73013003e-02, 1.04162199e-02, 2.22949758e-02,
          8.24982673e-03, 1.49295004e-02, 1.34463385e-02, 1.41157750e-02,
          -2.80924458e-02, -4.85569201e-02, 4.64417189e-02,
          -1.07166509e-03, 2.19734553e-02, 1.21999271e-02,
          1.39259258e-02, -1.00997379e-02, -1.77959178e-03,
          -5.13899215e-02, -1.27399415e-02, -1.25916591e-02,
          3.63168530e-02, 4.23575826e-02, 2.37770975e-02, 2.23609358e-02,
          -3.96873365e-04, -2.78667063e-02, -1.11112796e-01,
          -5.27545884e-02, 5.32581359e-02, 1.72107480e-02,
          5.31147644e-02, 2.64890492e-02, -2.03747358e-02,
          -2.31781937e-02, -9.18893050e-03, -2.99787261e-02,
          -5.55033199e-02, 5.22020496e-02, 6.45326599e-02,
          8.01021084e-02, -2.47343313e-02, -3.12368777e-02,
          3.36256786e-03, -1.91741847e-02, -1.60880443e-02,
          -3.61640826e-02, -4.03479324e-04, 3.50664668e-02,
          3.56662944e-02, -7.85121024e-02, -5.93987778e-02,
          1.13717355e-02, -3.72994617e-02, -2.52645966e-02,
          -2.40511261e-02, 5.19776307e-02, 4.52490188e-02,
          3.61830220e-02, -4.29837406e-02, -1.13170343e-02,
          3.14024724e-02, -3.34921405e-02, -1.60592813e-02,
          -1.03463987e-02, -2.26128963e-03, 3.23409066e-02,
          3.07481438e-02, -4.39646132e-02, -1.30332392e-02,
          1.85213750e-03, -5.26376441e-03, -2.61373725e-02,
          -2.49463599e-02, -2.85693840e-03, 2.14387458e-02,
          -9.82350763e-03, -4.01146486e-02, 1.18339655e-03,
          1.01030711e-02, 3.31822485e-02, -1.10743446e-02,
          -3.46568562e-02, -2.60303868e-03, 4.56314571e-02,
          1.85492989e-02, 9.24481545e-03, 2.98626069e-02,
          -2.33899802e-02, -1.85954962e-02, -1.80735961e-02,
          3.30801168e-03, -5.05307652e-02, 1.74299125e-02,
          5.45503711e-03, 1.00099575e-02, -1.99548737e-03,
          -2.58459076e-02, -2.01326050e-02, 1.58700701e-02,
          -5.53679690e-02, -1.03857629e-01, 5.39194909e-04,
          3.86804119e-02, 4.39915061e-02, 1.56727675e-02, 3.75788286e-02,
          4.36653346e-02, 2.79918239e-02, -5.01620471e-02,
          -3.55063491e-02, 2.79970863e-03, 1.40899336e-02,
          2.09764149e-02, -1.51456809e-02, 1.25669697e-02,
          4.68913000e-03, 5.39897680e-02, -4.14578505e-02,
          -1.43607128e-02, -2.12369580e-03, -1.14913145e-02,
          2.89953174e-03, 1.46831926e-02, 4.99728210e-02, 4.76765307e-03,
          4.43601012e-02, -3.04532325e-04, -7.52044171e-02,
          5.35401236e-03, 2.07458548e-02, 1.22906943e-03, 8.84580705e-03,
          6.13798425e-02, 1.10547654e-02, -3.26765068e-02,
          -4.95728105e-02, 8.79857223e-03, -4.90431711e-02,
          -7.55818933e-02, -1.10172424e-02, 1.24140019e-02,
          5.55325300e-02, -2.95299012e-02, 2.97039887e-03,
          -7.24654719e-02, -8.02348554e-03, 7.48435548e-03,
          2.60805245e-03, 6.55145012e-03, 2.20938940e-02, 3.32467780e-02,
          -8.70491713e-02, -2.70553492e-02, -1.23751335e-01,
          -3.92039685e-04, 2.51611993e-02, 4.33233716e-02,
          -1.96335750e-04, 3.16796787e-02, 5.11967465e-02,
          1.54089527e-02, -3.88614759e-02, -2.67957486e-02,
          -5.84452879e-03, -8.26657750e-03, -4.76534218e-02,
          2.28664372e-02, 4.29389887e-02, 6.88183531e-02, 9.26524587e-03,
          -8.29952061e-02, -6.85516819e-02, -5.02062030e-02,
          -2.66931579e-02, 1.68449674e-02, 2.52485704e-02,
          6.18914375e-03, 6.30611405e-02, 5.44298626e-03,
          -5.63335940e-02, -9.47003663e-02, -1.25234313e-02,
          -1.23225488e-02, -3.82760679e-03, 2.03025453e-02,
          7.40406588e-02, 6.09159842e-02, 3.52300704e-04,
          -4.72420976e-02, -7.82122836e-02, -1.12013035e-02,
          1.61321554e-02, 3.44132422e-03, 3.63300554e-02,
          -4.33523990e-02, 4.56475951e-02, 1.31050358e-02,
          -4.54703979e-02, -7.88288638e-02, -4.84759770e-02,
          -1.15019409e-03, 5.62182069e-02, -2.16982514e-02,
          1.01274941e-02, 8.76062885e-02, 2.60024425e-02,
          -3.42804641e-02, -5.62109537e-02, -8.58209729e-02,
          -4.04501110e-02, 6.29173890e-02, 3.25720981e-02,
          5.87641448e-02, 5.86012378e-02, 3.20958858e-03,
          -5.92018804e-03, -4.78019528e-02, -2.17160191e-02,
          2.91200001e-02, 2.56412625e-02, 3.07166539e-02, 2.30580904e-02,
          2.17480697e-02, -2.90319212e-02, -7.02958554e-02,
          -1.51840569e-02, 2.25608237e-02, 1.31732207e-02,
          7.96025768e-02, 3.33967283e-02, 4.29904908e-02, 7.14668781e-02,
          2.62758173e-02, -2.12744493e-02, -4.54135090e-02,
          -4.99439687e-02, -7.08998591e-02, 3.49137597e-02,
          2.83293929e-02, 1.98173467e-02, 2.43586558e-03, 1.14252826e-03,
          -2.12751329e-02, -1.56241227e-02, -6.69492548e-03,
          -4.77043614e-02, 4.33213525e-02, -2.19271872e-02,
          2.52876189e-02, 1.82052851e-02, -3.51492651e-02,
          -5.04537299e-02, -1.77872907e-02, 1.12644453e-02,
          2.76934244e-02, 6.73456118e-02, 5.24491034e-02, 3.23278606e-02,
          6.14245199e-02, 4.27596197e-02, -4.19109240e-02,
          1.75452158e-02, -5.88683076e-02, 1.10497307e-02,
          3.05440333e-02, 3.24363522e-02, 1.08240424e-02,
          -1.89148728e-02, 1.62152443e-02, -3.69823352e-02,
          -4.13062572e-02, -1.43503724e-02, 2.01751664e-02,
          1.99352205e-02, -3.60358991e-02, 2.77645793e-02,
          3.04206293e-02, 1.18854679e-02, -3.52128707e-02,
          2.92423870e-02, -1.78753026e-02, 4.73588072e-02,
          -6.36997446e-03, -2.01767348e-02, -2.03326680e-02,
          3.14540938e-02, 2.20137089e-02, -6.68307720e-03,
          -3.45482156e-02, -7.03578517e-02, -6.19381573e-03,
          5.26719093e-02, 3.25683784e-03, -2.56031333e-03,
          3.71035002e-02, 2.90366057e-02, 9.74090712e-04,
          -4.48943935e-02, -6.69598058e-02, -2.55548172e-02,
          1.44950533e-02, 1.83639042e-02, -2.75385901e-02,
          7.90458079e-03, -2.94575170e-02, -1.14105847e-02,
          9.96202044e-03, -3.04570198e-02, -6.14782935e-03,
          1.38574429e-02, -3.73411924e-02, -3.82596138e-03,
          1.30235180e-02, -4.54645790e-02, -6.04267493e-02,
          -3.22612524e-02, -5.01535125e-02, 1.65362202e-03,
          2.22284608e-02, -7.39737134e-03, -5.88358305e-02,
          2.59120278e-02, 4.31968756e-02, -1.17722107e-03,
          -1.69485509e-02, 1.55123733e-02, -9.15475935e-03,
          -1.03310810e-03, -2.17870362e-02, -4.78884503e-02,
          1.68167427e-02, 1.58479121e-02, 1.33716734e-02, 5.08041978e-02,
          2.22139582e-02, -1.36754131e-02, -3.56328711e-02,
          -5.23573048e-02, -1.91301070e-02, 2.93432418e-02,
          4.08222489e-02, -6.68035820e-03, -1.67110842e-02,
          -1.70828868e-02, 3.11961491e-02, -1.33285634e-02,
          -2.47669537e-02, -8.93267468e-02, -2.33581476e-02,
          1.71977729e-02, 5.35573391e-03, 2.29154434e-02, 3.80802639e-02,
          2.68831700e-02, -5.15899174e-02, -6.18114881e-02,
          -3.56228352e-02, 3.24649028e-02, -4.96780593e-03,
          -9.12819989e-03, -3.05585079e-02, 1.16745187e-02,
          -4.22440767e-02, -6.54503852e-02, -8.44176337e-02,
          -4.12011258e-02, 4.41049859e-02, 2.56922795e-03,
          2.93024871e-02, 2.48904992e-02, -4.51721288e-02,
          -4.62066615e-03, -1.09853279e-02, -4.47752923e-02,
          -5.45908883e-02, 2.56015360e-02, -1.36733009e-02,
          2.42531244e-02, -2.92674806e-02, 1.32609578e-02,
          -1.55299902e-02, -8.08185339e-02, -9.20791999e-02,
          -5.68326414e-02, 4.82105091e-02, 8.02023429e-03,
          1.45144016e-02, 1.89067156e-03, -2.10588146e-02,
          2.31165644e-02, -2.72412272e-03, -2.79677771e-02,
          -9.71481204e-02, 1.46007054e-02, 2.89582903e-03,
          4.39155959e-02, 5.12688980e-02, -1.10704126e-02,
          5.73158041e-02, 6.92379922e-02, 1.11364452e-02,
          -7.19528720e-02, 1.91896260e-02, 3.16363350e-02,
          -9.62751801e-04, -6.66472912e-02, 3.36472876e-02,
          6.07603453e-02, 5.24204150e-02, -4.83399406e-02,
          -8.15016925e-02, 2.56763417e-02, 2.55807582e-02,
          -3.01218517e-02, 2.57641729e-02, 8.95953365e-03,
          3.81672494e-02, 3.93459387e-02, -2.31194403e-02,
          -6.76031038e-02, 6.40237879e-04, 9.68504697e-03,
          -4.25586738e-02, -5.08661605e-02, 9.93122905e-03,
          4.20347415e-02, 3.10566034e-02, -7.22323731e-02,
          -2.23293584e-02, 3.49392034e-02, 3.04576419e-02,
          -1.00417910e-02, -7.72570968e-02, 2.31713406e-03,
          5.57683222e-03, 9.77564510e-03, -3.28868032e-02,
          -7.00345612e-04, 1.58492960e-02, -4.45991522e-03,
          9.56673932e-04, 3.71112779e-04, -4.52879108e-02,
          -9.66134295e-03, 9.29529127e-03, -2.70464532e-02,
          -7.40856398e-03, 2.01527178e-02, 3.48606221e-02,
          2.10494492e-02, -9.27278772e-02, -6.51688501e-02,
          -1.73733954e-03, 1.36879133e-02, 1.42256729e-02,
          4.45893742e-02, 2.28415728e-02, -2.53839022e-03,
          -1.10202916e-02, -1.02332179e-02, -5.94962612e-02,
          -4.13977318e-02, -4.21117954e-02, 4.77246866e-02,
          3.95890838e-03, 2.24013813e-02, 4.04617339e-02,
          -1.66262649e-02, -2.50964370e-02, 1.71288233e-02,
          3.50900739e-02, 3.37197147e-02, -2.63175294e-02,
          -1.35663869e-02, 6.28821999e-02, 6.60540909e-02,
          -3.08090542e-02, 3.44544947e-02, -3.43872681e-02,
          -2.52591372e-02, -3.04915234e-02, -2.34895609e-02,
          -4.67008445e-03, 5.46372309e-02, 5.33382967e-02,
          2.02514557e-03, 1.12425890e-02, 1.86075009e-02, 2.47461647e-02,
          -2.09401711e-03, 3.67200226e-02, -5.19846193e-02,
          1.71812309e-03, 4.09042053e-02, -2.38646455e-02,
          1.18227964e-02, -2.19042189e-02, 4.31293622e-02,
          1.42100416e-02, -1.48742711e-02, -3.73678729e-02,
          6.20464422e-02, 6.63873255e-02, -5.81669295e-03,
          5.76572865e-02, 6.05557347e-03, 9.18276608e-03,
          -2.24384926e-02, -6.44521713e-02, -2.87404545e-02,
          1.02999443e-02, 2.91641206e-02, -4.15823199e-02,
          2.98334733e-02, 2.36719288e-02, 3.61806490e-02, 2.69500483e-02,
          -2.71970332e-02, -3.09622046e-02, 2.84649730e-02,
          1.16679473e-02, -5.51320873e-02, -4.05752286e-02,
          3.16088200e-02, 6.06139228e-02, 2.01904215e-03,
          -4.20398526e-02, -1.54263387e-02, -8.73502903e-03,
          1.83583852e-02, -3.24500054e-02, 6.12690160e-03,
          3.96922641e-02, 7.88408816e-02, -2.87387855e-02,
          2.39882525e-03, -6.67619193e-03, -6.72833398e-02,
          2.33478771e-04, -6.48498461e-02, -2.85525396e-02,
          -2.13506212e-03, 4.06051315e-02, 2.77588405e-02,
          1.46822957e-02, 2.15779413e-02, -1.52557706e-02,
          -4.63445438e-03, -2.15888564e-02, -2.38864496e-02,
          3.85187678e-02, 2.00183410e-02, 1.24408933e-03,
          -2.82768309e-02, -1.74849071e-02, -2.54554935e-02,
          1.14589483e-02, 1.14590907e-02, -3.13259773e-02,
          3.60731333e-02, 1.64566059e-02, -4.20691520e-02,
          5.03544547e-02, -1.78726688e-02, 4.12699953e-02,
          7.70767685e-03, 7.28805289e-02, 3.45562771e-03, 6.06851093e-02,
          2.39338595e-02, -2.79731508e-02, -2.51975171e-02,
          9.08719318e-04, 5.06800190e-02, 1.81058533e-02, 4.34263311e-02,
          -5.29657342e-02, 2.03826632e-02, 4.72783260e-02,
          2.23097317e-02, -6.61641434e-02, -2.55392026e-02,
          -1.32792313e-02, -3.90659682e-02, -5.40226791e-03,
          -6.39261082e-02, 1.15537485e-02, 1.87610593e-02,
          2.45151799e-02, -5.93391396e-02, -1.15699403e-03,
          2.92405505e-02, 5.51865436e-02, 7.12074488e-02,
          -4.16398123e-02, -3.98499779e-02, 6.85363961e-03,
          -6.85626781e-03, -7.90842436e-03, 1.64830871e-02,
          1.81043595e-02, 3.10014468e-02, 6.46602660e-02, 1.69421770e-02,
          -2.77507361e-02, 7.91849379e-05, 4.33087349e-03,
          -1.34965433e-02, -3.15084495e-02, -6.86182678e-02,
          -4.65112850e-02, -7.75327440e-03, -5.87980561e-02,
          -4.30381112e-02, -7.20529212e-03, 1.60473660e-02,
          -2.07052156e-02, 3.59643772e-02, 1.02531360e-02,
          1.72982123e-02, 7.44453399e-03, -2.62405928e-02,
          -9.72759649e-02, -4.28748131e-02, 7.16972305e-03,
          6.22327719e-03, 2.46318057e-02, -1.46658383e-02,
          8.18566047e-03, 4.05964106e-02, 2.23359820e-02,
          -6.67598918e-02, -6.24787435e-02, -1.95826199e-02,
          7.02221878e-04, 7.95532390e-03, 2.33849548e-02, 1.61343198e-02,
          1.69448722e-02, 2.88498937e-03, -3.74965444e-02,
          -1.30625600e-02, -9.33972672e-02, -1.56383850e-02,
          4.80716117e-02, 5.52953407e-02, 4.18330133e-02,
          -1.65221598e-02, 7.99357146e-03, -6.32425696e-02,
          1.67685580e-02, 5.47273271e-02, 2.16944814e-02, 2.31582765e-02,
          3.38683948e-02, -7.69930379e-03, -4.79188338e-02,
          -2.72731483e-02, 1.87627152e-02, 3.35031212e-03,
          -2.21424457e-02, 5.94958477e-03, 2.61541940e-02,
          4.30910029e-02, -1.30159054e-02, -3.49652804e-02,
          -1.64360926e-03, -8.11523851e-03, -1.56925619e-02,
          -3.57815064e-02, -5.41870184e-02, -1.02247577e-02,
          1.19268615e-02, -4.13816646e-02, -1.56147899e-02,
          1.84404105e-02, -3.09954025e-02, -4.65357043e-02,
          -5.80896996e-02, 5.24045387e-03, 1.09112589e-02,
          -2.40181293e-03, -3.68109788e-03, -6.20879307e-02,
          -2.02688593e-02, 3.58441193e-03, -6.64126500e-02,
          -2.23137494e-02, 6.08084258e-03, 1.50910662e-02,
          5.39002270e-02, 3.73725221e-02, -3.98664623e-02,
          -2.07712874e-02, -2.10507922e-02, -7.66398087e-02,
          -1.25599664e-03, -1.08765686e-04, -5.43299178e-03,
          1.42071750e-02, 8.72221123e-03, -1.80921257e-02,
          -2.07722429e-02, 1.63943041e-02, -5.13338186e-02,
          -2.30276752e-02, -6.80748234e-03, 3.03622782e-02,
          5.04348166e-02, 2.37374939e-02, -3.17682028e-02,
          -2.46944502e-02, 2.96659041e-02, -3.56329940e-02,
          1.18994471e-02, 3.07992660e-02, -2.92324219e-02,
          6.13015741e-02, 4.49168682e-03, -1.79039203e-02,
          1.02504315e-02, -2.62246709e-02, -6.50328398e-02,
          1.82715878e-02, -3.92827988e-02, -1.45061631e-02,
          3.70417498e-02, 7.07613351e-03, -1.49620967e-02,
          -2.63601448e-02, -6.79686964e-02, -6.99447021e-02,
          -4.07821825e-03, -3.17912064e-02, 7.81467855e-02,
          2.32834648e-02, -2.75399238e-02, -1.97439436e-02,
          6.17040619e-02, 7.06442818e-02, 5.20896027e-03, 4.44849059e-02,
          5.03219515e-02, 4.22241464e-02, -5.27593829e-02,
          -1.38004143e-02, 2.47654021e-02, 6.04929924e-02,
          1.67892855e-02, 2.10333499e-03, 2.62323115e-02, 1.92748364e-02,
          3.58230881e-02, 4.93102102e-03, -6.35648565e-03,
          -1.11019202e-02, 4.91485605e-03, 8.81189760e-03,
          -9.79812071e-02, -4.29228954e-02, -1.10031702e-02,
          -4.41931048e-03, -2.46762261e-02, -9.13590007e-03,
          -6.09498359e-02, 4.88654757e-03, -1.30992485e-02,
          -6.21950291e-02, -5.45053137e-03, -2.59763532e-04,
          1.91624500e-02, -4.94576767e-02, -2.17258651e-02,
          1.38658322e-02, 5.38261086e-02, 6.03079125e-02, 2.04318459e-03,
          3.72238457e-02, -4.38903123e-02, 3.15428078e-02,
          6.47813156e-02, -1.27731287e-03, -2.40263864e-02,
          9.58165154e-02, 6.69977665e-02, 9.55288392e-03, 3.72400917e-02,
          -3.03285364e-02, -2.71218736e-02, 2.18870603e-02,
          3.33211757e-02, -1.61686707e-02, -1.91879142e-02,
          -3.11438218e-02, 3.06862500e-03, 1.00348489e-02,
          -2.83990130e-02, 3.85793787e-03, 4.43774499e-02,
          2.74572093e-02, -3.73949073e-02, -1.70934340e-03,
          -3.05403154e-02, 1.75547190e-02, -2.69642621e-02,
          -3.42386700e-02, 6.45568874e-03, 4.71214317e-02,
          4.09491509e-02, -1.07440520e-02, 5.77808507e-02,
          2.09850390e-02, 4.49800268e-02, 4.28113118e-02,
          -1.22724436e-02, 2.36649029e-02, 3.98207679e-02,
          7.25514861e-03, 2.41061160e-03, -1.97202861e-02,
          4.24877331e-02, 3.36213224e-02, 9.79860593e-03,
          -2.20671482e-02, 2.09227465e-02, -2.64331652e-03,
          -1.89645998e-02, -4.15085368e-02, 2.18193363e-02,
          -2.23813020e-02, 2.20836326e-02, 3.07396166e-02,
          -1.69223957e-02, 9.50198341e-03, -9.30537563e-03,
          -2.50502303e-02, 5.87179000e-03, 1.06598390e-02,
          -2.74825357e-02, 1.94770768e-02, 3.21469642e-02,
          7.74588669e-03, 2.43327096e-02, 8.49787146e-03,
          -2.42000092e-02, -5.73038980e-02, -5.08185290e-02,
          -3.31716835e-02, 1.64957847e-02, -1.25781950e-02,
          -3.96386124e-02, -1.77435447e-02, -2.59402823e-02,
          -4.83727790e-02, -1.21669443e-02, 3.55488099e-02,
          -3.07092313e-02, -7.70629430e-03, -4.25931886e-02,
          -7.29363710e-02, -3.62563096e-02, 1.06880534e-02,
          -7.41503760e-03, 9.11079999e-03, -6.10396266e-03,
          -1.96438096e-02, 6.86048577e-03, -2.96065789e-02,
          -1.82975344e-02, -3.71062346e-02, -1.66893490e-02,
          -2.68791579e-02, -1.50526389e-02, -6.84154779e-02,
          2.43093036e-02, 8.25643633e-03, -2.39120517e-02,
          -5.07368147e-02, -2.98163425e-02, -2.56452262e-02,
          -2.00741049e-02, -1.73825696e-02, 1.04296859e-02,
          2.56137699e-02, 1.12556363e-03, -2.28247065e-02,
          -1.42792314e-02, 7.49608828e-03, 4.03132886e-02,
          4.97819111e-03, -1.46995075e-02, -3.48786078e-02,
          2.79016551e-02, 2.50916705e-02, 4.50069224e-03,
          -3.02587245e-02, -6.16035126e-02, 2.97367256e-02,
          -3.88671942e-02, -1.17618507e-02, -8.42202157e-02,
          -2.96268752e-03, 6.39845803e-03, -4.78765881e-03,
          -5.09897508e-02, 7.29511376e-04, 1.43404780e-02,
          7.64919771e-03, -5.73020168e-02, -7.54071325e-02,
          -2.50554029e-02, 3.35651673e-02, 2.06320640e-02,
          -1.19948210e-02, 2.30188575e-02, 1.53861288e-03,
          2.21839733e-03, -1.56053156e-02, -1.07911415e-03,
          2.24428307e-02, -4.62185890e-05, -7.11796898e-03,
          -1.68318022e-02, 2.72517372e-02, -1.37719829e-02,
          -3.02628335e-03, -3.07281259e-02, -1.49158817e-02,
          -2.05404088e-02, 3.17176841e-02, 3.52476090e-02,
          1.71084460e-02, -3.61714475e-02, 1.17754925e-03,
          2.08744854e-02, -2.83097848e-02, -3.82701936e-03,
          6.35212064e-02, 5.60003817e-02, 7.33372709e-03, 1.30424043e-02,
          -5.31024635e-02, -2.33934144e-03, -9.51049756e-03,
          2.25973278e-02, 7.68597284e-03, 4.97547314e-02, 2.51822695e-02,
          -1.67827436e-03, -4.02996279e-02, -3.48251648e-02,
          -4.23837639e-02, 3.97849008e-02, 2.32757218e-02,
          1.31592853e-03, 2.66045071e-02, 4.49316278e-02,
          -8.73931870e-03, 1.34795764e-02, -5.25978841e-02,
          -4.48141322e-02, 1.17624914e-02, 4.49471101e-02,
          2.84659583e-02, 2.83782799e-02, 2.66474895e-02,
          -6.11067703e-03, -2.26967670e-02, -3.09686791e-02,
          -1.70062855e-02, 1.84625259e-03, 4.11041044e-02,
          1.74232991e-03, -6.77634627e-02, -2.83634644e-02,
          -3.12773101e-02, -1.04198800e-02, -1.30919106e-02,
          3.01228017e-02, 3.01171672e-02, 2.19726539e-03,
          -3.00592333e-02, -5.81934527e-02, -6.21932931e-02,
          -4.54546362e-02, 9.92791448e-03, -6.35917634e-02,
          -3.26415114e-02, 1.58943739e-02, 1.45023847e-02,
          1.18723242e-02, 6.78562047e-03, 2.55921669e-02,
          -1.69453248e-02, -3.21987271e-02, -6.38372526e-02,
          2.35363171e-02, 1.85258612e-02, -3.10650188e-02,
          -5.16682304e-02, 1.19082183e-02, 2.62454711e-03,
          -2.40051206e-02, -4.09099720e-02, -1.22976620e-02,
          2.91476753e-02, 3.44106629e-02, 2.07165666e-02, 7.38563947e-03,
          4.14978946e-03, -6.27073320e-03, 9.26756952e-03,
          2.67768167e-02, -5.00168242e-02, -3.70220095e-02,
          -4.27129269e-02, -1.34087112e-02, -6.98563233e-02,
          -9.63603407e-02, -2.18925178e-02, 1.14073418e-02,
          1.46277929e-02, -6.13826849e-02, 4.24593873e-02,
          3.49641033e-02, -4.80703032e-03, -2.70776544e-02,
          6.07038885e-02, 3.22879441e-02, 1.89341772e-02,
          -3.07679009e-02, -3.89768891e-02, -6.03554014e-04,
          -1.49300566e-03, 3.82528156e-02, -5.35269044e-02,
          -7.72191659e-02, -4.78522368e-02, -6.23076744e-02,
          -2.06406154e-02, -1.04174810e-02, -2.00917181e-02,
          -4.49820198e-02, -3.96752469e-02, -6.93502501e-02,
          -3.28943133e-02, 1.83741450e-02, 8.83624051e-03,
          1.77759770e-02, 2.65914407e-02, -1.49784833e-02,
          -1.97404507e-03, -2.23711245e-02, 5.34461753e-04,
          -2.84229219e-02, 5.79549558e-02, 8.76328722e-03,
          2.72733625e-02, 1.73101835e-02, 1.39340584e-03,
          -1.27393077e-03, 3.63994017e-02, -2.39483882e-02,
          -8.08063298e-02, -1.66433342e-02, -6.59219129e-03,
          4.84632095e-03, 2.07108092e-02, -4.75802310e-02,
          -5.52684404e-02, -7.59376260e-03, 4.82171215e-02,
          2.54214443e-02, 2.32086517e-02, 3.46358865e-02, 1.93617847e-02,
          5.41273914e-02, -9.38936975e-03, -1.82160269e-02,
          3.63737606e-02, -7.14153200e-02, 7.08506443e-03,
          4.14697191e-04, 6.35703886e-03, 3.04865390e-02, 1.94029382e-03,
          2.14466676e-02, -7.20929494e-03, 4.46449667e-02,
          1.37580223e-02, 3.03285867e-02, 1.09104207e-02, 2.32997146e-02,
          -1.16012227e-02, 1.47662591e-02, -3.22220549e-02,
          -4.15197909e-02, -6.26173476e-03, -6.98670745e-02,
          3.05079091e-02, -2.87318369e-03, 3.45466807e-02,
          -3.15909041e-03, -7.57085085e-02, -1.95296388e-02,
          1.32186189e-02, 4.26946431e-02, 5.54269459e-03, 2.07785219e-02,
          -2.55666138e-03, -4.96429577e-02, -1.02385879e-01,
          -9.29166656e-03, -1.54726207e-02, 1.44888938e-03,
          1.91996107e-03, -4.25493829e-02, -3.27327996e-02,
          -1.04194609e-02, 1.93628538e-02, -9.43695661e-03,
          3.61361206e-02, -4.92215417e-02, -1.65929552e-02,
          1.13826822e-02, 2.30340585e-02, -1.04982875e-01,
          -8.28646570e-02, -1.86649151e-03, -2.56421678e-02,
          -3.64123238e-03, -4.00796570e-02, -4.56030034e-02,
          8.51299614e-03, -2.29873899e-02, 5.46672149e-03,
          5.40924317e-04, -2.09248029e-02, -2.81792618e-02,
          9.23636928e-03, -5.28671667e-02, -3.34596597e-02,
          1.73369870e-02, 3.77334282e-02, -1.51722413e-02,
          -3.36565226e-02, 2.47085397e-03, -2.83672046e-02,
          3.22557166e-02, -6.56739846e-02, -2.20105983e-02,
          -1.81629453e-02, -1.10552423e-02, -4.19242159e-02,
          -2.88875103e-02, -2.01615524e-02, -6.51739491e-03,
          -2.35835034e-02, -3.22101405e-03, -1.11391302e-02,
          -5.99094704e-02, -7.90593326e-02, -2.49084365e-02,
          -6.38954118e-02, -9.76678804e-02, -9.51342359e-02,
          -3.96901444e-02, -4.49279957e-02, 1.15867825e-02,
          -7.94891210e-04, 4.92682606e-02, 3.74576077e-02,
          3.77710387e-02, 4.04477119e-02, 8.00020713e-03,
          -1.12707131e-01, -4.12522368e-02, -1.20672062e-02,
          -7.91694894e-02, 1.49105694e-02, -5.38071711e-03,
          2.55185589e-02, 3.73361520e-02, -5.70039004e-02,
          9.60696395e-03, 3.44241858e-02, 7.65913352e-03,
          -5.95826060e-02, -2.97584776e-02, -1.35483695e-02,
          -2.70071458e-02, -8.04495648e-04, -2.37632990e-02,
          -6.71417192e-02, -3.22089419e-02, 1.02545815e-02,
          -7.73933018e-03, 3.56961414e-02, -2.85466574e-02,
          -4.17627804e-02, -8.04567561e-02, -3.20448093e-02,
          -1.66876912e-02, -6.43868744e-03, 7.19198957e-02,
          1.97883733e-02, 4.24153246e-02, -1.15829110e-02,
          2.01403424e-02, 3.44664976e-02, -3.79176885e-02,
          -6.45671338e-02, -3.57188694e-02, 3.37586403e-02,
          -4.68616607e-03, 2.68636942e-02, 2.97889337e-02,
          -1.26329064e-03, 9.14009474e-03, -4.96055931e-02,
          3.52799357e-03, -1.21630328e-02, 2.60398909e-02,
          2.64388509e-02, 1.72164459e-02, 1.24021675e-02,
          -7.41182044e-02, -1.36275627e-02, -5.19921854e-02,
          3.00526731e-02, -3.41033228e-02, -1.81365460e-02,
          2.84634139e-02, 5.20436913e-02, 4.47379388e-02,
          -1.09398097e-03, -1.29008181e-02, 5.79729443e-03,
          -3.48023977e-03, -2.68517975e-02, 2.35543051e-03,
          -2.34014029e-03, 1.30093442e-02, 2.88539305e-02,
          -5.45511115e-03, 5.85116148e-02, -4.94379066e-02,
          4.09100279e-02, 8.18727631e-03, 8.47472530e-03, 5.47141992e-02,
          4.32728343e-02, 3.21563855e-02, 1.37613211e-02, 4.47577648e-02,
          -2.20445171e-02, 6.63710237e-02, -5.55010960e-02,
          -3.45255062e-02, -2.38294993e-02, 5.49746044e-02,
          7.10198730e-02, -2.92359572e-02, 1.94697864e-02,
          3.75397922e-03, -1.84993562e-03, -1.58137809e-02,
          -3.27511854e-03, 4.10630042e-03, 3.50180604e-02,
          1.43439220e-02, 1.73224248e-02, 2.65774764e-02,
          -1.17697371e-02, -3.89580498e-03, -1.92902070e-02,
          -4.99623492e-02, 9.99345444e-03, 1.60226300e-02,
          6.54784590e-02, 1.03885820e-02, 6.95781112e-02,
          -3.00286934e-02, 9.60851833e-03, 6.03995845e-02,
          4.45578247e-02, 2.11878940e-02, 3.22434045e-02, 2.10383395e-03,
          -1.56493951e-02, 1.84262288e-03, 6.02119742e-03,
          -4.03304659e-02, -8.68432131e-03, 5.00850030e-04,
          -1.07439477e-02, 2.10072808e-02, 1.54242944e-03,
          2.47835480e-02, 7.61090666e-02, -8.85977447e-02,
          -6.73776269e-02, 1.69686247e-02, -3.41054313e-02,
          -7.81340227e-02, 4.26936410e-02, 1.11437459e-02,
          1.24082863e-02, 6.53971434e-02, -5.04354015e-02,
          -1.33347083e-02, 7.36661777e-02, 9.60350707e-02,
          2.64704395e-02, 1.82034932e-02, -4.68705110e-02,
          -1.67379994e-02, 3.35243344e-02, -8.32484011e-03,
          -3.21465917e-02, 4.70709763e-02, 2.18628123e-02,
          -9.61354282e-03, 1.67418085e-02, -1.85131133e-02,
          -1.20708523e-02, 3.84508632e-02, -1.62350126e-02,
          -2.88137738e-02, 1.92726571e-02, -1.44329686e-02,
          -3.75609621e-02, 7.18860999e-02, -1.27951959e-02,
          -1.21758711e-02, 2.96662375e-02, -1.20673757e-02,
          -4.98091988e-02, -1.27517637e-02, -7.50236809e-02,
          4.41124775e-02, -4.32977453e-03, -5.40387759e-04,
          1.83480214e-02, -1.03443221e-03, -4.27088514e-02,
          -3.45776826e-02, 2.45820824e-02, -2.53455900e-02,
          -9.92864743e-03, 1.98233388e-02, -4.34147120e-02,
          -4.13692407e-02, 2.14290284e-02, -4.94816434e-03,
          -5.68985306e-02, -2.74633449e-02, -3.97232696e-02,
          5.87956375e-03, 4.24951129e-02, -2.01970804e-02,
          -1.79169476e-02, -5.68663962e-02, -5.34139648e-02,
          1.93795469e-02, 6.17880411e-02, -4.46469299e-02,
          -3.08093503e-02, -1.27110956e-02, -2.33186549e-03,
          1.76715832e-02, -7.10733887e-03, -3.09156422e-02,
          4.90931123e-02, 1.57428568e-03, -6.07121997e-02,
          -5.89093827e-02, 6.94232248e-03, -2.80660484e-03,
          2.11007874e-02, 2.77201161e-02, -5.06385714e-02,
          1.57985874e-02, -2.02928949e-02, -6.65881261e-02,
          3.44776991e-03, 3.49056609e-02, -1.58736072e-02,
          7.50679523e-03, -2.73136683e-02, 1.77278705e-02,
          7.21873110e-03, -1.75825022e-02, -1.81155745e-02,
          -9.79896262e-03, -2.49044737e-03, -2.47363467e-02,
          4.73244395e-03, 3.65238115e-02, -4.57720906e-02,
          -9.98297147e-03, -2.60352548e-02, -2.22438574e-02,
          -1.69102661e-02, -1.42576359e-02, 2.15844624e-02,
          5.75308651e-02, 2.75844038e-02, -9.09401197e-03,
          3.91098186e-02, 2.74692886e-02, 4.09146659e-02,
          -2.14940254e-02, -3.08929831e-02, -1.31404828e-02,
          1.53108118e-02, 1.45801650e-02, -1.76110212e-02,
          -6.28095344e-02, -5.55568859e-02, -4.31727506e-02,
          2.14835722e-02, -2.87942924e-02, 3.78754176e-03,
          2.05091909e-02, 3.81417647e-02, -2.45697331e-03,
          -2.69077066e-02, -4.49781828e-02, -4.19018120e-02,
          -2.52053374e-03, -2.79023740e-02, -3.65824103e-02,
          -4.12791818e-02, 9.81767010e-03, 6.75563747e-03,
          1.81403235e-02, -2.83457395e-02, 2.31504664e-02,
          9.60534788e-04, -5.19341696e-03, 1.10193742e-02,
          9.56613570e-03, -2.08293051e-02, -2.52540968e-02,
          1.74984988e-02, -2.74084955e-02, -2.32822523e-02,
          -2.53404882e-02, -8.26924294e-03, 2.80274022e-02,
          -5.43681160e-03, -2.14763265e-02, 1.34767070e-02,
          1.90963484e-02, -2.37051044e-02, -3.38532738e-02,
          -3.31248455e-02, -3.53495106e-02, -5.18014058e-02,
          -2.14640498e-02, 1.84040610e-02, 4.58757095e-02,
          4.02360670e-02, -2.54022852e-02, -1.15480302e-02,
          -1.46138901e-02, -2.09868290e-02, -3.06763072e-02,
          -4.39521782e-02, -3.33862193e-02, 8.46722629e-03,
          9.93670337e-03, -5.79375401e-03, 3.41718234e-02,
          -5.03331656e-04, -9.77050886e-03, 2.72882283e-02,
          2.65647043e-02, -9.77725140e-04, -1.06261708e-02,
          -2.40255725e-02, 5.62145971e-02, 4.49707434e-02,
          2.36011799e-02, -3.88416238e-02, 2.13351231e-02,
          3.56957428e-02, 9.41150263e-03, 1.09761516e-02,
          -3.26850004e-02, -4.92361672e-02, 5.75337335e-02,
          -2.35431232e-02, -3.94803798e-03, 1.46388728e-03,
          -3.00318990e-02, -4.50722501e-02, -2.31504925e-02,
          -3.99901308e-02, -2.25341320e-02, 2.60497276e-02,
          -4.59062085e-02, -1.51569331e-02, 7.47949854e-02,
          4.89256997e-03, -4.77550849e-02, -3.28489505e-02,
          -6.01156205e-02, 6.94131991e-03, 4.18889895e-02,
          3.28360349e-02, 5.84668247e-04, 5.11989407e-02, 2.26354469e-02,
          -1.33004552e-02, -3.50457653e-02, -3.07596531e-02,
          1.30111659e-02, 2.22313087e-02, 9.24146967e-04,
          -3.20094731e-03, 6.20687678e-02, 1.49946623e-02,
          -7.48464325e-03, -2.46680155e-02, -4.11290862e-02,
          -3.31414957e-03, 1.50802005e-02, -3.38222161e-02,
          -5.20438924e-02, 8.31313506e-02, -2.22362299e-02,
          -4.51265350e-02, -6.20541796e-02, -2.72606444e-02,
          -1.69392433e-02, 2.90326495e-03, 1.22012459e-02,
          3.99733614e-03, 5.42373769e-03, -3.71840820e-02,
          -3.03245597e-02, -4.85793091e-02, -1.57919805e-02,
          3.88068780e-02, 5.99006973e-02, -1.02563919e-02,
          -7.29241893e-02, 6.81913197e-02, 6.28834125e-03,
          -8.27008672e-03, -3.33190188e-02, -4.64185923e-02,
          -2.70833895e-02, 3.14127207e-02, 2.56054457e-02,
          8.54367216e-04, -1.84021275e-02, -3.79708894e-02,
          -4.14001010e-02, -4.48951013e-02, 1.09942453e-02,
          -2.49421988e-02, 5.81040531e-02, 4.34607007e-02,
          -8.25453550e-02, 7.39828721e-02, -2.47232467e-02,
          1.09029459e-02, 1.10505912e-02, -4.59383205e-02,
          -6.67446181e-02, 1.18434825e-03, -2.74083447e-02,
          -2.63475673e-03, 4.17353250e-02, -2.10680161e-03,
          1.78465433e-03, 1.02486433e-02, -7.17585674e-03,
          -3.56954560e-02, -3.41337960e-04, 3.51672955e-02,
          -2.80232411e-02, -6.02128059e-02, -3.44301090e-02,
          -1.52939865e-02, -3.76425236e-02, 8.82778969e-03,
          -2.01694686e-02, -4.15159948e-02, 6.89266343e-03,
          5.01068961e-03, 6.34974474e-03, -2.83382591e-02,
          -1.58636831e-02, -2.32727919e-02, -1.30816549e-02,
          -5.99610694e-02, -2.84737404e-02, 3.82943489e-02,
          -3.12894695e-02, 3.86205007e-04, 4.04028483e-02,
          2.95824539e-02, -1.38274468e-02, 4.24888059e-02,
          -4.38421257e-02, -1.25447242e-02, -5.79089858e-04,
          -1.56357922e-02, 2.00732630e-02, 1.13263782e-02,
          -1.89148914e-02, -2.12466111e-03, 2.35522836e-02,
          1.84207521e-02, -5.31166838e-03, -4.10726806e-03,
          -8.38702098e-02, 1.84445754e-02, -3.36961113e-02,
          2.30910722e-03, 5.33675170e-03, -3.13564092e-02,
          1.12239234e-02, 2.54810620e-02, -3.25011811e-03,
          -5.73857315e-02, 1.95284523e-02, -6.62465170e-02,
          -4.73347902e-02, -4.71461900e-02, 1.44927278e-02,
          2.27393564e-02, 3.85591364e-03, -1.56930853e-02,
          -1.45208826e-02, 3.61996028e-03, -4.32355935e-03,
          9.86575149e-03, 3.67116407e-02, -6.32983772e-03,
          3.92018668e-02, -1.27962176e-02, -1.29539252e-03,
          2.54374109e-02, 3.87367047e-02, -3.87542285e-02,
          -1.19114784e-03, -1.24746803e-02, -4.84440848e-02,
          -1.85544826e-02, -7.10493624e-02, 1.61435027e-02,
          5.25023863e-02, -3.46036963e-02, -3.27382348e-02,
          -2.35151481e-02, -4.78906929e-02, -3.53580751e-02,
          1.85854528e-02, -6.99313805e-02, 3.65769416e-02,
          4.70665284e-03, -2.55773906e-02, 4.45027538e-02,
          3.12826224e-02, -4.36556526e-02, -4.49201874e-02,
          2.29079239e-02, -1.98400244e-02, 2.96440385e-02,
          8.51459727e-02, 5.83304442e-04, -5.26307821e-02,
          8.07098113e-03, -4.23209220e-02, 1.78497806e-02,
          4.56960239e-02, -5.11080585e-02, -4.56672162e-03,
          3.05483453e-02, -3.57761979e-02, -2.90297456e-02,
          8.15383391e-04, 1.33075053e-02, -5.52133434e-02,
          -2.43339073e-02, -4.80286181e-02, -6.32077316e-03,
          1.95421781e-02, 4.16711159e-03, 4.77374159e-02, 1.99992508e-02,
          1.39948269e-02, -1.82158761e-02, -2.64196265e-02,
          -7.51055554e-02, -9.58146378e-02, 1.46737080e-02,
          -5.80271222e-02, 2.40329914e-02, 3.62422876e-02,
          1.37026445e-03, -1.36049166e-02, -3.75987217e-02,
          -8.54438245e-02, -5.61455637e-02, 6.59252238e-03,
          -9.37567279e-03, 7.00220689e-02, -2.14439426e-02,
          -2.27577779e-02, -4.97817844e-02, -4.03246768e-02,
          -1.77059546e-02, -6.96722195e-02, 2.39465069e-02,
          -1.69839673e-02, -5.25728287e-03, -1.31526098e-01,
          -8.84774476e-02, 5.90026891e-03, 1.64611973e-02,
          5.72450571e-02, -1.15566393e-02, 6.28782716e-03,
          -8.76280889e-02, 3.47616933e-02, 1.13257254e-02,
          -2.29350198e-02, -1.15804989e-02, -3.18669975e-02,
          3.35767157e-02, -3.66777778e-02, -5.56965098e-02,
          -4.65290509e-02, -2.68157534e-02, -3.30266915e-02,
          -4.24161553e-02, 4.46622493e-03, 6.18343912e-02,
          3.47314179e-02, 9.62835271e-03, -4.58533540e-02,
          -9.31933448e-02, -2.17644814e-02, -9.33492333e-02,
          -6.54591322e-02, -4.84243967e-02, -9.23708454e-03,
          4.43870574e-02, -2.19772309e-02, -5.49163297e-02,
          -7.97432438e-02, -5.54211810e-03, -4.00433540e-02,
          -6.35363534e-02, 2.50993520e-02, -1.47888493e-02,
          1.40559319e-02, 1.57948919e-02, -3.88694443e-02,
          -1.12351403e-02, 1.02674831e-02, 1.95564907e-02,
          -2.34876145e-02, 4.98768650e-02, -3.32906172e-02,
          -1.59993060e-02, 8.94118845e-03, -5.14611900e-02,
          -6.83737993e-02, -3.44599448e-02, -2.80117290e-03,
          2.10716892e-02, -4.00343016e-02, 1.21530546e-02,
          2.90117823e-02, -1.48905069e-02, 2.64176968e-02,
          -4.72848266e-02, 5.23095392e-02, 7.46680843e-03,
          -5.24457507e-02, 3.01740877e-03, 2.66663986e-03,
          -3.56142484e-02, -4.89817634e-02, 3.22531387e-02,
          -6.99253157e-02, 6.58411533e-02, -2.89751892e-03,
          1.06873792e-02, 2.01804955e-02, 3.23845446e-03,
          -2.64384355e-02, -2.01191250e-02, 2.55061984e-02,
          2.07705293e-02, -4.18310538e-02, 3.81003208e-02,
          -1.61128379e-02, 2.75184847e-02, 7.62808248e-02,
          4.21668477e-02, -1.07394662e-02, 6.78623142e-03,
          -4.99289483e-02, -3.43472660e-02, 5.50883124e-03,
          3.02881002e-03, 5.66292088e-03, 3.91631201e-03, 3.15018930e-02,
          -5.53116314e-02, 3.43453251e-02, 1.27135096e-02,
          2.95367073e-02, 1.51763167e-02, 1.54309878e-02,
          -2.91383024e-02, 1.24133220e-02, 3.30859758e-02,
          -9.22911521e-03, -2.54060924e-02, -5.76336496e-02,
          1.18605122e-02, 3.31560150e-03, 1.53467376e-02,
          -1.54133616e-02, 6.31629229e-02, 7.29874521e-02,
          -1.71790943e-02, -2.89075971e-02, -8.53155851e-02,
          -6.04076236e-02, 2.15873271e-02, -4.29392606e-02,
          -4.15686034e-02, 2.88096871e-02, 1.26045803e-02,
          -1.85937795e-03, -1.82208605e-02, -8.15599691e-03,
          -1.23940110e-02, 3.87366451e-02, -6.35517836e-02,
          -3.42053585e-02, -2.40788126e-04, 4.22897637e-02,
          2.47123316e-02, -6.60962099e-03, -9.01639834e-02,
          -4.70761135e-02, 2.28493568e-02, -4.35258970e-02,
          -2.79292651e-02, -9.70275700e-03, 2.69530620e-02,
          3.25739607e-02, 7.30137452e-02, 2.61816978e-02, 2.50321515e-02,
          2.63552312e-02, -3.86895984e-02, -4.53369394e-02,
          2.57979911e-02, -3.55578810e-02, -3.15317586e-02,
          -1.48467561e-02, -2.03578696e-02, -2.18784399e-02,
          1.51983052e-02, -5.29706059e-03, -5.94592318e-02,
          -5.44189140e-02, -9.18134078e-02, -8.74353498e-02,
          4.86881137e-02, -2.43313834e-02, 8.78678635e-03,
          -2.04429887e-02, 6.31352235e-03, -1.86972003e-02,
          1.57418456e-02, -1.40147265e-02, 1.26959151e-03,
          2.28167344e-02, -3.55715002e-03, 3.91935278e-03,
          4.68344055e-03, 1.66087169e-02, 6.77698329e-02,
          -1.85483787e-02, -4.57583778e-02, -6.12217337e-02,
          -5.19572906e-02, -7.48254806e-02, -5.95790595e-02,
          3.98516543e-02, 8.32088664e-02, -1.28432531e-02,
          -5.48564456e-02, -7.31423646e-02, 8.52973014e-03,
          6.10684380e-02, 2.67171469e-02, 1.47657767e-02,
          -1.26760304e-02, -1.65886618e-03, -5.36696315e-02,
          -6.59758318e-03, 6.34143427e-02, 1.92801021e-02,
          9.53578483e-03, -4.11743484e-03, -4.20302786e-02,
          -5.40552400e-02, -6.18859082e-02, 6.07216470e-02,
          8.70338175e-03, -8.14342126e-03, 1.47294886e-02,
          1.31494887e-02, -4.56965305e-02, -4.20910828e-02,
          9.05620530e-02, 9.29181278e-02, -2.96992082e-02,
          -8.26400667e-02, -3.21539119e-02, 8.38738214e-03,
          2.31415546e-03, -3.06359935e-03, -3.40830609e-02,
          1.86025128e-02, -5.20023406e-02, -5.90690449e-02,
          -5.20603918e-02, 2.17277259e-02, 3.76600511e-02,
          8.09001848e-02, 3.15527171e-02, -2.79113953e-03,
          -2.47867941e-03, -9.55124386e-03, 1.90628413e-02,
          -1.98987406e-02, -4.31173667e-02, -1.20527335e-02,
          8.25930834e-02, 1.92212947e-02, -6.77235366e-04,
          3.72525640e-02, 5.01959473e-02, -2.53684614e-02,
          -9.33602899e-02, 1.28427520e-03, 1.86623912e-02,
          7.62843862e-02, 4.29824367e-02, 4.49327081e-02, 3.52992825e-02,
          -2.62699798e-02, 1.58898961e-02, -6.85491115e-02,
          -7.60728866e-02, -1.49663910e-02, 2.97280755e-02,
          8.63241148e-04, -3.21328081e-03, 5.09490445e-03,
          -4.07014368e-03, 4.63718623e-02, 1.79782566e-02,
          -6.02719234e-03, -3.33200395e-02, 5.44175738e-04,
          -2.72606462e-02, -3.81442867e-02, 9.44107585e-03,
          5.57712391e-02, 8.49203963e-04, -2.89880615e-02,
          -1.06141865e-02, -4.24792841e-02, -7.82510266e-03,
          -5.00475653e-02, -2.46351492e-02, -3.85843264e-03,
          2.44653244e-02, 2.22466830e-02, -5.83140291e-02,
          -6.05670959e-02, -3.81412134e-02, 2.55797561e-02,
          1.99869331e-02, -5.37685417e-02, 2.88334284e-02,
          1.89473704e-02, 3.48541290e-02, 8.53973813e-03, 1.02653671e-02,
          -1.26626059e-01, -2.06164606e-02, -3.67589667e-02,
          -5.21374308e-02, 4.66363840e-02, 6.27091080e-02,
          6.78954553e-03, -3.41228507e-02, 2.33592894e-02,
          1.55574931e-02, 5.14399521e-02, 2.53622960e-02, 5.91073930e-02,
          8.83694505e-04, -1.31581665e-03, -2.30170805e-02,
          -2.85328664e-02, 6.10857690e-03, -1.30616231e-02,
          4.00609104e-03, 7.34877661e-02, 7.09920228e-02, 2.38553956e-02,
          -3.76859959e-03, 5.45976721e-02, 6.49527982e-02,
          2.42360551e-02, -7.59396106e-02, -2.89169569e-02,
          1.30970161e-02, 5.98573452e-03, 4.68220264e-02, 8.55149776e-02,
          -1.69007648e-02, 1.14513398e-03, 1.57042351e-02,
          -2.42448645e-03, -2.64456272e-02, 3.68138887e-02,
          6.69971574e-03, 3.15458030e-02, 1.51678892e-02, 3.10480762e-02,
          -5.44846896e-03, 1.14320200e-02, 1.95753966e-02,
          -6.77081272e-02, 5.18500023e-02, -5.91588067e-03,
          1.52345495e-02, 1.25369420e-02, 5.09049967e-02, 1.46040805e-02,
          2.78539602e-02, 4.68214415e-02, -2.83485595e-02,
          7.80131370e-02, -7.36227911e-03, -2.00185571e-02,
          -1.55840823e-02, 1.23183997e-02, -6.64966507e-03,
          3.06141172e-02, 2.10420098e-02, -8.85733962e-02,
          -2.03686375e-02, -1.63790211e-02, 9.21774562e-03,
          4.89540072e-03, 6.98951781e-02, 2.57824752e-02, 6.09660000e-02,
          1.49914138e-02, -4.15490679e-02, -4.97770356e-03,
          -1.82862226e-02, -3.73797156e-02, -3.01460251e-02,
          1.06834406e-02, -3.08069941e-02, -4.96657658e-03,
          4.31244038e-02, -2.56559867e-02, 7.20404387e-02,
          -2.09568944e-02, -3.77209927e-03, -3.60149741e-02,
          -1.67457443e-02, -3.93542610e-02, 2.08407771e-02,
          -9.90968384e-03, 2.69762687e-02, 5.65774068e-02,
          1.51477484e-02, 1.22647136e-02, -5.69393784e-02,
          1.10898679e-02, -1.00424075e-02, 3.86351198e-02,
          -5.23873372e-03, -1.30828833e-02, 1.80733204e-02,
          -1.82166547e-02, -5.93162552e-02, -3.87050882e-02,
          -7.83640053e-03, 2.06159018e-02, 5.40063828e-02,
          -1.74593553e-02, 1.13100134e-01, 6.43419474e-02,
          4.84539047e-02, -6.94200024e-03, -2.19825543e-02,
          -6.06214022e-03, -3.31051722e-02, -7.77239620e-04,
          -1.28668137e-02, -6.46210015e-02, 1.81204937e-02,
          2.24068947e-02, 1.99231561e-02, -1.35518936e-02,
          -2.67463666e-03, -5.12235612e-02, 7.63097685e-03,
          -4.10995819e-02, -8.60852525e-02, -1.46718770e-02,
          2.68753581e-02, 1.33780418e-02, 2.18189675e-02,
          -4.54822881e-03, 5.26007526e-02, 6.85484037e-02,
          -4.21358570e-02, 3.88808772e-02, -1.91619117e-02,
          -7.10053742e-03, -2.76027042e-02, 1.68868266e-02,
          -1.49345314e-02, -1.55464839e-02, 3.74369621e-02,
          -2.57266453e-03, -1.40005294e-02, -5.58057390e-02,
          -1.69247370e-02, 2.38606939e-03, 2.17848420e-02,
          -5.74161578e-03, -1.30512230e-02, -2.90545239e-03,
          -3.11003588e-02, -4.51978184e-02, -2.26217732e-02,
          3.19955647e-02, 2.17954181e-02, 3.83514017e-02,
          -1.98844373e-02, 2.46538799e-02, -1.80230904e-02,
          -2.31841952e-02, -1.46273272e-02, 5.79524711e-02,
          3.62566523e-02, -1.20867295e-02, -9.11189988e-03,
          -2.05996968e-02, -7.20344484e-03, 5.88744208e-02,
          -1.20947910e-02, -5.24617359e-02, -1.00297844e-02,
          2.28082631e-02, -2.56244466e-02, -2.62291022e-02,
          -3.92444953e-02, 7.22374488e-03, 6.12881966e-02,
          -3.30570643e-03, -6.81040017e-03, 8.88558701e-02,
          5.69092408e-02, 2.83681471e-02, -2.17667893e-02 ]
   decision_functions:
      -
         sv_count: 1
         rho: -2.2774372493441981e+00
         alpha: [ 1. ]
         index: [ 0 ]
